{
  "epoch": 18,
  "neurons": [
    {
      "id": 0,
      "distance": 0.0,
      "value": -0.22602977109853742,
      "layer": 0,
      "weights": {}
    },
    {
      "id": 1,
      "distance": 0.0,
      "value": 2.2159589303682803,
      "layer": 0,
      "weights": {}
    },
    {
      "id": 2,
      "distance": 0.0,
      "value": -0.0462878682907289,
      "layer": 0,
      "weights": {}
    },
    {
      "id": 3,
      "distance": 0.0,
      "value": -0.12010640421831224,
      "layer": 0,
      "weights": {}
    },
    {
      "id": 4,
      "distance": 0.0,
      "value": -0.3543972387426521,
      "layer": 0,
      "weights": {}
    },
    {
      "id": 5,
      "distance": 0.0,
      "value": -0.20397251028934438,
      "layer": 0,
      "weights": {}
    },
    {
      "id": 6,
      "distance": 0.0,
      "value": 1.4416391198008445,
      "layer": 0,
      "weights": {}
    },
    {
      "id": 7,
      "distance": 0.0,
      "value": -0.11164581739576679,
      "layer": 0,
      "weights": {}
    },
    {
      "id": 8,
      "distance": 0.0,
      "value": -0.21121204169409752,
      "layer": 0,
      "weights": {}
    },
    {
      "id": 9,
      "distance": 0.0,
      "value": -0.13854084343372666,
      "layer": 0,
      "weights": {}
    },
    {
      "id": 10,
      "distance": 0.0,
      "value": -0.07992626990151266,
      "layer": 0,
      "weights": {}
    },
    {
      "id": 11,
      "distance": 0.0,
      "value": -0.3041615258730528,
      "layer": 0,
      "weights": {}
    },
    {
      "id": 12,
      "distance": 0.0,
      "value": -0.09943949582407885,
      "layer": 0,
      "weights": {}
    },
    {
      "id": 13,
      "distance": 0.0,
      "value": -0.07978372552060785,
      "layer": 0,
      "weights": {}
    },
    {
      "id": 14,
      "distance": 0.0,
      "value": -0.0822522525765634,
      "layer": 0,
      "weights": {}
    },
    {
      "id": 15,
      "distance": 0.5726088686659745,
      "value": -0.3312523158907996,
      "layer": 1,
      "weights": {
        "0": 0.47175501179645773,
        "1": -0.4712083811561759,
        "2": 0.4378945220576308,
        "3": -0.27771830451337054,
        "4": -0.3705886362754286,
        "5": 0.0974578744409974,
        "6": 0.33885901991480416,
        "7": 0.4566738112917553,
        "8": -0.1357212570038029,
        "9": 0.32768945086113765,
        "10": -0.4692093355180138,
        "11": 0.46850609583419767,
        "12": -0.20654014613724114,
        "13": 0.043508332496083435,
        "14": -0.37566335864738376
      }
    },
    {
      "id": 16,
      "distance": -0.9123444908203584,
      "value": 0.7138944495449024,
      "layer": 1,
      "weights": {
        "0": -0.49231017780057273,
        "1": 0.10015743715621162,
        "2": 0.06112325425159526,
        "3": 0.3159456276832924,
        "4": 0.3511398111737496,
        "5": -0.07654691165677108,
        "6": 0.34734228769747044,
        "7": -0.299268409191046,
        "8": 0.3808895345850386,
        "9": -0.24945654573011278,
        "10": 0.4397522257583645,
        "11": -0.11569171498036923,
        "12": -0.0719370424216601,
        "13": 0.018320069879217526,
        "14": -0.44108316973279305
      }
    },
    {
      "id": 17,
      "distance": -0.8502182643737168,
      "value": 1.1371929853847556,
      "layer": 1,
      "weights": {
        "0": 0.044937637065757596,
        "1": 0.21409223064154304,
        "2": -0.455251231439332,
        "3": -0.09324890212682235,
        "4": -0.13003193142884695,
        "5": 0.2811545356453813,
        "6": 0.49043696309004337,
        "7": -0.40941178907197273,
        "8": 0.04368795697979766,
        "9": -0.3958148106392959,
        "10": 0.28374018553663427,
        "11": 0.44221704766508285,
        "12": 0.20647516442369984,
        "13": 0.08154150154315021,
        "14": -0.45947599148535423
      }
    },
    {
      "id": 18,
      "distance": -0.8074740368803837,
      "value": -0.2987553886585914,
      "layer": 1,
      "weights": {
        "0": -0.2603247628116049,
        "1": -0.41826393484197133,
        "2": -0.3662144342160456,
        "3": 0.45931356606235885,
        "4": -0.15207688599491087,
        "5": 0.4068589494193837,
        "6": 0.2608350187915398,
        "7": 0.2754008543430423,
        "8": 0.4128589308406537,
        "9": 0.19791057285855596,
        "10": -0.15235342442073896,
        "11": -0.030329208053290424,
        "12": -0.10992863244563578,
        "13": -0.46770431871344254,
        "14": -0.45591223126696734
      }
    },
    {
      "id": 19,
      "distance": 0.13518729818096387,
      "value": 1.748990907662732,
      "layer": 1,
      "weights": {
        "0": 0.02274068528069917,
        "1": 0.47242645890211055,
        "2": 0.12060851562655539,
        "3": 0.3186881593462594,
        "4": -0.02349320774325847,
        "5": 0.08201508360382159,
        "6": 0.31554718025720574,
        "7": -0.46592895169016135,
        "8": -0.4808501093978811,
        "9": -0.07037834041792235,
        "10": -0.2077981086632812,
        "11": -0.07190611091346,
        "12": -0.4359884389359986,
        "13": -0.3311088390736602,
        "14": -0.40155119399177774
      }
    },
    {
      "id": 20,
      "distance": 0.21742906970172582,
      "value": -0.43638714341189305,
      "layer": 1,
      "weights": {
        "0": -0.46696122825160635,
        "1": -0.47948870923747977,
        "2": 0.18070267080317692,
        "3": -0.076707902955933,
        "4": -0.477237442093855,
        "5": 0.44042437729745665,
        "6": -0.00940354303017088,
        "7": 0.4370814958337941,
        "8": 0.14854649176637869,
        "9": 0.04693016946528916,
        "10": -0.10479811557403451,
        "11": -0.39937114632978776,
        "12": 0.46580723827249537,
        "13": -0.060352517382195936,
        "14": -0.19387121323969203
      }
    },
    {
      "id": 21,
      "distance": -0.7090323889508143,
      "value": 1.2833999253459836,
      "layer": 1,
      "weights": {
        "0": 0.09578436985735639,
        "1": 0.48323542167144695,
        "2": -0.0981627358236512,
        "3": 0.3070623823725368,
        "4": 0.19984668553979934,
        "5": 0.015111036002754208,
        "6": 0.1533523728402203,
        "7": 0.23234762366418227,
        "8": 0.42833643919812625,
        "9": -0.4558710603140542,
        "10": -0.35616197141193107,
        "11": -0.25764862206994754,
        "12": -0.4327161744204394,
        "13": -0.21886706110948306,
        "14": -0.0646094197754844
      }
    },
    {
      "id": 22,
      "distance": -0.5632533631283476,
      "value": -0.3207191992565049,
      "layer": 1,
      "weights": {
        "0": -0.0005633515157431601,
        "1": -0.4932603275408667,
        "2": 0.4139380676677019,
        "3": 0.21456074789364665,
        "4": -0.39638604206423345,
        "5": -0.28694103500334767,
        "6": 0.2576106496125229,
        "7": -0.3572575334062591,
        "8": 0.2341982806795988,
        "9": -0.462194323806735,
        "10": 0.12199133614028268,
        "11": 0.18050658499861172,
        "12": 0.04139531526878426,
        "13": 0.29459335032163203,
        "14": 0.43960516544924544
      }
    },
    {
      "id": 23,
      "distance": 0.9704636492628125,
      "value": -0.17418165072881378,
      "layer": 1,
      "weights": {
        "0": -0.44685050555954875,
        "1": -0.015431154243681355,
        "2": -0.38395388858722157,
        "3": 0.244184797530282,
        "4": -0.2941137228735363,
        "5": -0.33223220534136,
        "6": -0.44070440122756893,
        "7": -0.4844060666553798,
        "8": -0.2385686530385629,
        "9": -0.30474813525404765,
        "10": 0.023754465860403196,
        "11": 0.31949695634729347,
        "12": 0.2210288009987318,
        "13": -0.17573217326946577,
        "14": -0.243984544563276
      }
    },
    {
      "id": 24,
      "distance": 0.5579145519040443,
      "value": 0.29584330276217535,
      "layer": 1,
      "weights": {
        "0": -0.224717908332007,
        "1": 0.14812686511888773,
        "2": 0.47051330520542267,
        "3": 0.08035054675942244,
        "4": -0.027149045549181405,
        "5": -0.45086984460187085,
        "6": -0.23823336955521013,
        "7": 0.44919553312829585,
        "8": -0.44312803610605267,
        "9": -0.4459223970929732,
        "10": 0.1026904418903305,
        "11": -0.19235667447717086,
        "12": 0.09877501649109588,
        "13": -0.26761768776867345,
        "14": -0.28018758022600143
      }
    },
    {
      "id": 25,
      "distance": -0.49616131925312557,
      "value": -0.1061276242077234,
      "layer": 1,
      "weights": {
        "0": 0.2142653496497584,
        "1": 0.1939954430341072,
        "2": -0.4718666180371346,
        "3": 0.20914424449346347,
        "4": 0.26251707382275047,
        "5": -0.0320280917239576,
        "6": -0.4053313074164334,
        "7": -0.4866776633116774,
        "8": 0.47895354416541913,
        "9": -0.4004657131581123,
        "10": -0.4989101151649248,
        "11": -0.43966471594667267,
        "12": 0.4083116552624392,
        "13": 0.49895604398856486,
        "14": 0.26064808358196234
      }
    },
    {
      "id": 26,
      "distance": 0.8780665516946335,
      "value": -0.3976797396534507,
      "layer": 1,
      "weights": {
        "0": 0.3090634489957138,
        "1": -0.4278162409762144,
        "2": -0.12108724055544096,
        "3": 0.14110141213461536,
        "4": 0.18834221425464348,
        "5": 0.26401747539746157,
        "6": 0.19243645186633207,
        "7": -0.38169189927167513,
        "8": -0.10419037569146272,
        "9": 0.4462782871792398,
        "10": 0.1442942982013654,
        "11": -0.30991614778318377,
        "12": -0.08247521332019114,
        "13": 0.4552908360774227,
        "14": -0.23876539055670876
      }
    },
    {
      "id": 27,
      "distance": -0.7988084162028137,
      "value": 0.04860240317179028,
      "layer": 1,
      "weights": {
        "0": 0.31139418104326044,
        "1": 0.1500953366515423,
        "2": -0.13098151370227518,
        "3": -0.032976052003277245,
        "4": -0.233532591594652,
        "5": 0.19086217216531465,
        "6": -0.1991152631973816,
        "7": 0.051313297600798724,
        "8": 0.4225160236082781,
        "9": 0.15731890920935954,
        "10": -0.1486103982365532,
        "11": -0.3637309310753427,
        "12": -0.0025820808618285396,
        "13": -0.45139802553650554,
        "14": 0.27281289263878794
      }
    },
    {
      "id": 28,
      "distance": -0.0654963089908549,
      "value": -0.38223483316892315,
      "layer": 1,
      "weights": {
        "0": -0.05302272377576589,
        "1": -0.20186760855429353,
        "2": 0.2011962297322133,
        "3": -0.05503903519075637,
        "4": -0.05796172110954678,
        "5": -0.2935076716353213,
        "6": -0.42108314278402026,
        "7": -0.42348955870387517,
        "8": -0.26714416913892636,
        "9": 0.2395254807255186,
        "10": 0.1625798032205127,
        "11": -0.30519548974390154,
        "12": -0.467769212230291,
        "13": -0.23031930046042448,
        "14": 0.18268584195900983
      }
    },
    {
      "id": 29,
      "distance": -0.5081236426453788,
      "value": -0.5701437922932506,
      "layer": 1,
      "weights": {
        "0": -0.04022911287561115,
        "1": -0.3813472376956121,
        "2": 0.28909521812579486,
        "3": 0.07621918926057292,
        "4": -0.059561916520992964,
        "5": 0.4890703366920054,
        "6": 0.008500823354702813,
        "7": -0.22449040251474228,
        "8": 0.18365908489022031,
        "9": 0.4510047189785148,
        "10": 0.12479269340627275,
        "11": 0.42244105883951366,
        "12": 0.05175003705483472,
        "13": -0.20195766174704488,
        "14": 0.14216948263855156
      }
    },
    {
      "id": 30,
      "distance": -0.8661137901177365,
      "value": 0.2567775794973449,
      "layer": 1,
      "weights": {
        "0": 0.48563384660390696,
        "1": 0.0032471635839860236,
        "2": -0.46709530095507623,
        "3": -0.19731576631861847,
        "4": 0.12327076231046707,
        "5": 0.3553646277521094,
        "6": 0.41956470628820797,
        "7": -0.13468680798117638,
        "8": 0.39306799692367955,
        "9": 0.008319127259855064,
        "10": 0.07349184419623422,
        "11": 0.3703620928623087,
        "12": 0.21674317765843354,
        "13": 0.0657173668294897,
        "14": -0.48383310680299507
      }
    },
    {
      "id": 31,
      "distance": -0.32358276867839697,
      "value": -0.2799408310936516,
      "layer": 1,
      "weights": {
        "0": 0.24419678570184478,
        "1": -0.08478096343425878,
        "2": -0.47282894146840704,
        "3": 0.3581409529697377,
        "4": -0.13714528709539653,
        "5": 0.23806814078126137,
        "6": -0.15172813844115696,
        "7": -0.133136382393524,
        "8": 0.0907642479199916,
        "9": 0.01292967095212294,
        "10": 0.4241829793421179,
        "11": 0.0863472708305335,
        "12": -0.146084380067786,
        "13": 0.05575010983747286,
        "14": 0.2529705475501193
      }
    },
    {
      "id": 32,
      "distance": 0.47379605426604465,
      "value": 0.40196931381072604,
      "layer": 1,
      "weights": {
        "0": -0.48521434341804215,
        "1": 0.020446700636076454,
        "2": 0.39394101955038463,
        "3": -0.029351595838288058,
        "4": -0.34019141805716546,
        "5": -0.3572042913515522,
        "6": 0.035065830539579346,
        "7": 0.31081798600092847,
        "8": 0.2655249564050054,
        "9": -0.10704732494846536,
        "10": -0.4468000553957404,
        "11": -0.1910999386360771,
        "12": 0.09166819076165689,
        "13": -0.006843629625301162,
        "14": -0.10222227432514908
      }
    },
    {
      "id": 33,
      "distance": -0.5917952052276774,
      "value": -0.6984722490817288,
      "layer": 1,
      "weights": {
        "0": -0.04825705830813143,
        "1": -0.3397801536042713,
        "2": 0.13556091670421877,
        "3": -0.3511973262892467,
        "4": -0.34902779481571533,
        "5": 0.4352122661838934,
        "6": -0.47651588246879517,
        "7": -0.1456314955896909,
        "8": -0.003913584192709818,
        "9": -0.3959140691054758,
        "10": -0.13874060396221788,
        "11": 0.3860581948238573,
        "12": 0.2686287451128171,
        "13": -0.16646851119958184,
        "14": -0.11004257586257749
      }
    },
    {
      "id": 34,
      "distance": -0.44889296160824554,
      "value": -0.02477919954362681,
      "layer": 1,
      "weights": {
        "0": 0.33474742190598383,
        "1": -0.1844879208932403,
        "2": 0.2564389403179539,
        "3": 0.463399443773305,
        "4": -0.21373170384131035,
        "5": 0.13120687613463367,
        "6": 0.3125329884050606,
        "7": 0.03684581275374055,
        "8": 0.4284788846141925,
        "9": -0.21970262437558696,
        "10": -0.028402406812397918,
        "11": -0.14418503127946203,
        "12": -0.21113446596980445,
        "13": 0.4539664655188732,
        "14": -0.439872064332658
      }
    },
    {
      "id": 35,
      "distance": -0.2846256584087983,
      "value": -0.25856522425407047,
      "layer": 1,
      "weights": {
        "0": 0.4845188377627748,
        "1": -0.23452938495870213,
        "2": 0.17068629848340522,
        "3": 0.3732529480589477,
        "4": -0.26432714912587807,
        "5": -0.2871116215191414,
        "6": 0.17911509575117457,
        "7": -0.43446756091696814,
        "8": 0.10874840144263997,
        "9": 0.3891513210133073,
        "10": 0.40512099770497767,
        "11": 0.4064603685893905,
        "12": -0.017955323003186807,
        "13": 0.31488960280013023,
        "14": 0.46093174602983134
      }
    },
    {
      "id": 36,
      "distance": 0.40306974191251244,
      "value": 1.0942009067953251,
      "layer": 1,
      "weights": {
        "0": -0.2456023036286683,
        "1": 0.26094892052295937,
        "2": 0.014349850300546252,
        "3": -0.07282297504544732,
        "4": -0.3358509392921214,
        "5": 0.3235066275653121,
        "6": 0.16758228759346894,
        "7": -0.4629131899763028,
        "8": -0.29813253166964204,
        "9": -0.4596890746103802,
        "10": 0.04463332189490732,
        "11": 0.21904009363980692,
        "12": -0.157976140527321,
        "13": -0.3115047561711194,
        "14": -0.10958223485838314
      }
    },
    {
      "id": 37,
      "distance": 0.22438891667694572,
      "value": -0.4503966843165908,
      "layer": 1,
      "weights": {
        "0": -0.4514588416815607,
        "1": -0.4196817198303696,
        "2": 0.16148563718828235,
        "3": 0.40766888375107946,
        "4": 0.07278494376751887,
        "5": -0.423561182136322,
        "6": 0.011223234262542903,
        "7": -0.2341905308486717,
        "8": 0.041865092706370954,
        "9": -0.23719359845589494,
        "10": -0.2428761439886582,
        "11": 0.4611311217255847,
        "12": -0.1391395456742912,
        "13": -0.05495281292930654,
        "14": 0.4950577911774462
      }
    },
    {
      "id": 38,
      "distance": -0.11132940821753201,
      "value": -0.2125483103120437,
      "layer": 1,
      "weights": {
        "0": -0.16472825928442136,
        "1": -0.23599792530111652,
        "2": -0.3425067491406305,
        "3": 0.3355287855299828,
        "4": 0.4420161358899771,
        "5": 0.09467136866857206,
        "6": 0.1217533227014278,
        "7": -0.39096875536613396,
        "8": -0.43366710990057333,
        "9": -0.13257709236511228,
        "10": -0.4390607171384979,
        "11": 0.21133080904517032,
        "12": 0.21046484188057435,
        "13": 0.3485802691444304,
        "14": -0.11944756481845631
      }
    },
    {
      "id": 39,
      "distance": -0.0017889036364580058,
      "value": -0.26645445634871373,
      "layer": 1,
      "weights": {
        "0": -0.4404500084091685,
        "1": -0.08213491682149154,
        "2": 0.40885895794612226,
        "3": -0.27860927020042825,
        "4": 0.0828950517907302,
        "5": 0.04401345302697779,
        "6": -0.2669624426139764,
        "7": -0.20657335614154404,
        "8": -0.3981484935578211,
        "9": 0.33464614515719804,
        "10": 0.37245285942394135,
        "11": 0.34154193230858954,
        "12": 0.39984659918468834,
        "13": -0.4772570159126509,
        "14": -0.39836448413182446
      }
    },
    {
      "id": 40,
      "distance": -0.41263444856941756,
      "value": 0.02047757195470084,
      "layer": 1,
      "weights": {
        "0": -0.3534948856877058,
        "1": 0.18143155540261846,
        "2": 0.10133941221287868,
        "3": -0.1624060065515759,
        "4": 0.4937342204018158,
        "5": -0.48417854423137396,
        "6": -0.2879536333012038,
        "7": -0.32325975627852965,
        "8": -0.4487405752577046,
        "9": -0.20216408612069292,
        "10": 0.17028212128214282,
        "11": 0.4803084356996843,
        "12": 0.04691591065386658,
        "13": -0.27690446972813454,
        "14": 0.018753820650800446
      }
    },
    {
      "id": 41,
      "distance": 0.11854474672304827,
      "value": 1.201279085476777,
      "layer": 1,
      "weights": {
        "0": -0.3164995605425559,
        "1": 0.17072326321253406,
        "2": 0.377811499849962,
        "3": 0.1762017210231066,
        "4": -0.3886460332659991,
        "5": 0.06267841905400207,
        "6": 0.46724068418814624,
        "7": 0.22199525258226682,
        "8": -0.15424678337174735,
        "9": -0.2399345443516211,
        "10": 0.2878771336781514,
        "11": -0.20813301940814866,
        "12": 0.469744361754608,
        "13": 0.4552156283763148,
        "14": 0.08229111345505524
      }
    },
    {
      "id": 42,
      "distance": -0.7074138011114948,
      "value": -0.21332110449518635,
      "layer": 1,
      "weights": {
        "0": 0.1098325577196454,
        "1": 0.03473225192097695,
        "2": -0.48900602494367895,
        "3": -0.4451710557868074,
        "4": -0.029697578901555888,
        "5": -0.049031441620196015,
        "6": -0.3706489859983939,
        "7": 0.272685908624973,
        "8": 0.14244934899594464,
        "9": -0.2369254761968883,
        "10": 0.2777573054878538,
        "11": 0.0784070236807175,
        "12": -0.136791331764629,
        "13": 0.14515969909523263,
        "14": -0.37283033782142616
      }
    },
    {
      "id": 43,
      "distance": -0.901066577416237,
      "value": 0.19750859508449944,
      "layer": 1,
      "weights": {
        "0": 0.18017138999234028,
        "1": 0.011793673513952885,
        "2": -0.1351463303568019,
        "3": -0.06786762532256718,
        "4": 0.14439403658586836,
        "5": -0.3682676618339584,
        "6": 0.14076148408364497,
        "7": -0.355801145099917,
        "8": 0.42808553273594263,
        "9": -0.23077166274968997,
        "10": 0.11527068400582063,
        "11": 0.11780094181889134,
        "12": -0.4133284861238993,
        "13": -0.3591270749415253,
        "14": 0.42755864813343525
      }
    },
    {
      "id": 44,
      "distance": 0.9511107879107141,
      "value": 0.7855314676570859,
      "layer": 1,
      "weights": {
        "0": 0.35151617728558926,
        "1": 0.3631670728645422,
        "2": 0.42333512151048946,
        "3": -0.16869464628475184,
        "4": -0.29838565077643087,
        "5": -0.3238297039961462,
        "6": -0.15717248687382346,
        "7": -0.3611036330829518,
        "8": -0.11131666245766958,
        "9": 0.227608028815817,
        "10": 0.010299715149903244,
        "11": -0.43182190740907467,
        "12": 0.3447795465522051,
        "13": -0.22539803007421444,
        "14": 0.39112683968497397
      }
    },
    {
      "id": 45,
      "distance": -0.8477649083697607,
      "value": -0.1510806436158192,
      "layer": 2,
      "weights": {
        "15": -0.4873513923494931,
        "16": -0.21609202398003902,
        "17": 0.14070212752607358,
        "18": 0.42812136703878556,
        "19": 0.0418823941836578,
        "20": 0.2881501877242999,
        "21": -0.45600492798978554,
        "22": -0.18293427602076306,
        "23": -0.05422452624257856,
        "24": -0.2765235876961156,
        "25": -0.449500674086449,
        "26": -0.4552114114825109,
        "27": -0.3161369242776989,
        "28": -0.30739020191534006,
        "29": -0.15508721046758744,
        "30": -0.47962259533735674,
        "31": 0.0906607012627123,
        "32": 0.3335000419810765,
        "33": 0.17617047112583717,
        "34": -0.22205680075639134,
        "35": -0.008936799235649162,
        "36": 0.3360267388906142,
        "37": -0.1953294536471345,
        "38": 0.08086355603151318,
        "39": -0.1145389808652123,
        "40": -0.19480353338175693,
        "41": -0.09247801643425135,
        "42": 0.33249715138704894,
        "43": 0.2906855492764362,
        "44": -0.40733074009874115
      }
    },
    {
      "id": 46,
      "distance": 0.37925861782504855,
      "value": 0.07232438908493455,
      "layer": 2,
      "weights": {
        "15": 0.29477455214980774,
        "16": 0.11510377873816757,
        "17": -0.36912522103781664,
        "18": 0.3986633993461842,
        "19": -0.12987309206300512,
        "20": -0.022434632716087366,
        "21": 0.1356158980124419,
        "22": -0.26030178158510875,
        "23": -0.43597543041528086,
        "24": 0.4579503512714028,
        "25": 0.12983143943559416,
        "26": -0.39565282163760984,
        "27": -0.47435440709530696,
        "28": 0.23829588231202115,
        "29": -0.45024949053511254,
        "30": 0.4770871503345475,
        "31": -0.05288100571385301,
        "32": 0.22544046908559867,
        "33": 0.14713046442439226,
        "34": 0.4427606840315249,
        "35": -0.08352879074749464,
        "36": 0.38886902202599505,
        "37": -0.023397777000068842,
        "38": -0.15705750317733225,
        "39": -0.02051409918395597,
        "40": -0.23501830575450988,
        "41": -0.2152442675720394,
        "42": 0.1982852677976198,
        "43": 0.3623872473183585,
        "44": -0.3661640923096965
      }
    },
    {
      "id": 47,
      "distance": 0.07509122983189753,
      "value": 1.2035227099619594,
      "layer": 2,
      "weights": {
        "15": 0.180592089521442,
        "16": 0.08040837678463375,
        "17": 0.2359782731387814,
        "18": 0.2229539318636884,
        "19": -0.018803756433158347,
        "20": -0.44003667535663427,
        "21": 0.28501114962099183,
        "22": -0.27039083019834564,
        "23": -0.38044076316691444,
        "24": 0.38519523465536243,
        "25": 0.382046926682056,
        "26": -0.08939272508702811,
        "27": -0.013872720557150386,
        "28": -0.1511343359733417,
        "29": 0.2798154866554041,
        "30": 0.006371914181279803,
        "31": 0.4264014054931744,
        "32": 0.38079386530426373,
        "33": -0.26268726668954157,
        "34": 0.20652310415271202,
        "35": 0.04433604250940182,
        "36": 0.028244963752080854,
        "37": -0.3579108836495746,
        "38": -0.4494933697852751,
        "39": -0.3302939419143206,
        "40": -0.03619474127477229,
        "41": 0.03249876711362465,
        "42": 0.3891065685533086,
        "43": 0.18793381345525406,
        "44": -0.3189355375264299
      }
    },
    {
      "id": 48,
      "distance": -0.20664156356987395,
      "value": -0.1809782690672506,
      "layer": 2,
      "weights": {
        "15": 0.468530415664443,
        "16": -0.36173021514619197,
        "17": -0.2899891907920433,
        "18": -0.10074257607526182,
        "19": 0.3990445136001256,
        "20": -0.20608482044685672,
        "21": 0.334095021792418,
        "22": 0.16562112623836367,
        "23": -0.4618435032624495,
        "24": -0.3862840578341553,
        "25": 0.23628358360847024,
        "26": 0.056310560302764046,
        "27": -0.27148482062823454,
        "28": -0.050224572074953455,
        "29": 0.12312664416298424,
        "30": -0.29420583701068603,
        "31": 0.42483131702990906,
        "32": 0.0029153474266550017,
        "33": -0.3621424243870226,
        "34": -0.26151283096338884,
        "35": -0.4295512757321531,
        "36": -0.11941003948471052,
        "37": -0.04854480303253683,
        "38": -0.021063317337439935,
        "39": 0.2602882891166002,
        "40": -0.15278531888358293,
        "41": -0.4020044872001963,
        "42": 0.018348882944320133,
        "43": 0.4976619825337847,
        "44": -0.35480098936347726
      }
    },
    {
      "id": 49,
      "distance": 0.1456476898819321,
      "value": -0.19584669322562503,
      "layer": 2,
      "weights": {
        "15": -0.01028266844728254,
        "16": 0.4685812695649536,
        "17": -0.3392951764429779,
        "18": 0.4863522287086266,
        "19": -0.15557431988078874,
        "20": -0.4883691385985621,
        "21": 0.1434981231979524,
        "22": -0.10930630244540807,
        "23": 0.3864256237271465,
        "24": 0.4195089734424594,
        "25": 0.2955952870538523,
        "26": 0.39168049581360564,
        "27": -0.05392366835190365,
        "28": -0.17128210174074787,
        "29": -0.1022736283800334,
        "30": 0.3462376841955217,
        "31": -0.4073795466615868,
        "32": -0.06309504402620159,
        "33": -0.1155327220148642,
        "34": 0.17314900402648825,
        "35": 0.4637779814265378,
        "36": -0.15102413142743476,
        "37": 0.09940155194426903,
        "38": -0.1970541070575046,
        "39": 0.24636302573433255,
        "40": -0.18584358495831754,
        "41": -0.014477247847712982,
        "42": 0.26697940703964107,
        "43": -0.3015428676882752,
        "44": -0.14274113745524875
      }
    },
    {
      "id": 50,
      "distance": 0.6352690448085443,
      "value": 1.1133745039578722,
      "layer": 2,
      "weights": {
        "15": 0.22648051023945182,
        "16": 0.45368601859616164,
        "17": 0.33645994283921477,
        "18": -0.0394133634667605,
        "19": 0.11923308674414435,
        "20": 0.07248039501071579,
        "21": -0.10545728388761988,
        "22": 0.1592907413894159,
        "23": 0.39605833331610807,
        "24": -0.062245440908928695,
        "25": 0.1332759766230619,
        "26": -0.2099088069058257,
        "27": -0.13792313384847832,
        "28": -0.46800340425833364,
        "29": -0.3243130788165227,
        "30": 0.3318893647448554,
        "31": 0.11657740007090933,
        "32": 0.4092479141511147,
        "33": -0.2923790200832802,
        "34": 0.35047881491760713,
        "35": 0.1396244236887768,
        "36": 0.20540503128709908,
        "37": -0.27767897840310607,
        "38": 0.35923974993556196,
        "39": -0.1437676701911379,
        "40": 0.44510313583031713,
        "41": -0.3146095261571422,
        "42": 0.36497653948849373,
        "43": -0.21624392686645355,
        "44": -0.07420231693888724
      }
    },
    {
      "id": 51,
      "distance": -0.9425682506848807,
      "value": -0.14950218898514808,
      "layer": 2,
      "weights": {
        "15": 0.40642143240198403,
        "16": -0.1761092617677994,
        "17": 0.40629961722174346,
        "18": -0.03860292884938887,
        "19": 0.1236586559547127,
        "20": -0.3447308463364357,
        "21": -0.4924322992783824,
        "22": 0.026762667209937918,
        "23": 0.06657030477178116,
        "24": -0.04240668200201647,
        "25": -0.41268972671700876,
        "26": 0.3381677174381963,
        "27": -0.3797834160846246,
        "28": 0.40502691003355407,
        "29": -0.055546114327929,
        "30": -0.3061291288402923,
        "31": 0.47324482663995315,
        "32": 0.2048745460195659,
        "33": 0.22210597103762963,
        "34": 0.2518151489146576,
        "35": -0.05295624030723611,
        "36": 0.15968626413148934,
        "37": -0.14030389787059006,
        "38": -0.1214780743954833,
        "39": -0.3065806497244552,
        "40": 0.20143414566135165,
        "41": -0.4310022540399612,
        "42": -0.3770411206952441,
        "43": 0.4962334686193898,
        "44": 0.36183602029089323
      }
    },
    {
      "id": 52,
      "distance": 0.4690464119374904,
      "value": -0.3595864871802714,
      "layer": 2,
      "weights": {
        "15": -0.2484170194203058,
        "16": 0.46413648578772093,
        "17": -0.0329966775814744,
        "18": 0.2917866308425119,
        "19": -0.10433079533671208,
        "20": 0.4933824358052683,
        "21": -0.3453936825529209,
        "22": 0.2520552561904522,
        "23": -0.46706174458468785,
        "24": 0.3356475153391153,
        "25": 0.15472408793844583,
        "26": 0.2677150579124209,
        "27": -0.3725643562044476,
        "28": 0.4343250711606773,
        "29": -0.17633996306966415,
        "30": -0.4283110855387263,
        "31": -0.14996896048186292,
        "32": 0.10480096676809258,
        "33": 0.15100358379636536,
        "34": -0.4667373030418087,
        "35": 0.24290447512677682,
        "36": 0.3701383602775066,
        "37": 0.04765039752920919,
        "38": -0.48049613061529317,
        "39": 0.12706242606643547,
        "40": 0.042501908506261454,
        "41": -0.09419698126286258,
        "42": 0.3390124709065462,
        "43": 0.4234089070720374,
        "44": -0.29107892454087025
      }
    },
    {
      "id": 53,
      "distance": -0.5883677868472124,
      "value": 1.2599038612032405,
      "layer": 2,
      "weights": {
        "15": -0.026909621416842056,
        "16": 0.2748512255392085,
        "17": 0.00951495528152524,
        "18": -0.4838497840289282,
        "19": 0.2369950318328079,
        "20": 0.4681854650662345,
        "21": 0.4009480108508786,
        "22": 0.3912140070207262,
        "23": -0.4742882315749246,
        "24": -0.25666775445803824,
        "25": -0.22271032692376258,
        "26": 0.24397891493296753,
        "27": -0.3712042288476519,
        "28": -0.13009916499945662,
        "29": -0.29767497623361117,
        "30": -0.3393948277726232,
        "31": 0.3511174273506704,
        "32": 0.38289039203567476,
        "33": -0.33871812666521217,
        "34": -0.36427774353567755,
        "35": -0.19959463287616497,
        "36": 0.05914950098302296,
        "37": -0.126098865645211,
        "38": 0.04065521018262541,
        "39": 0.4667014973585373,
        "40": -0.20298643937794403,
        "41": 0.1925106352188266,
        "42": 0.43603694468019294,
        "43": -0.3676986682452571,
        "44": -0.19128740602517913
      }
    },
    {
      "id": 54,
      "distance": 0.5129803178146295,
      "value": -0.8515305823242519,
      "layer": 2,
      "weights": {
        "15": -0.026079655825469672,
        "16": -0.2720600687542579,
        "17": -0.37745802654032823,
        "18": 0.28297431312246046,
        "19": -0.23922997889369502,
        "20": 0.14695603747472508,
        "21": 0.021718632015907735,
        "22": 0.30287644802098357,
        "23": -0.374496993495379,
        "24": 0.2256757279458843,
        "25": -0.27182763701995594,
        "26": 0.36634472379160266,
        "27": -0.2525692968861557,
        "28": 0.09994097080870112,
        "29": 0.038319628159067864,
        "30": -0.3673880323120199,
        "31": 0.03844713700806146,
        "32": 0.061754169608329024,
        "33": 0.4590629157440036,
        "34": 0.07459826716273965,
        "35": -0.3385786199996742,
        "36": 0.019450077225629747,
        "37": -0.44131260695786356,
        "38": 0.22525408471874708,
        "39": 0.1955738825607206,
        "40": 0.235545773636602,
        "41": -0.47915419338240184,
        "42": -0.2879966813695881,
        "43": -0.10893219443610913,
        "44": 0.4217481013914388
      }
    },
    {
      "id": 55,
      "distance": -0.9608543510736756,
      "value": 0.8469945359089993,
      "layer": 2,
      "weights": {
        "15": 0.1257946874443312,
        "16": -0.1243537993272148,
        "17": 0.27194907244000976,
        "18": -0.053504110891488654,
        "19": 0.47377483824977096,
        "20": 0.06718197677738968,
        "21": -0.42917323697691534,
        "22": -0.11885568478581832,
        "23": -0.00029927059361567476,
        "24": -0.02346813587533214,
        "25": -0.03336678937658011,
        "26": -0.3347857525200705,
        "27": 0.0981925298871259,
        "28": -0.3239453157377029,
        "29": -0.03080719777059382,
        "30": -0.38755853347174984,
        "31": -0.066079077064639,
        "32": -0.3686499111924675,
        "33": -0.31092429208058925,
        "34": 0.42306903349445224,
        "35": 0.011684533894581683,
        "36": 0.20281935388683037,
        "37": 0.3953238571196541,
        "38": -0.1004952508357968,
        "39": 0.1463320773796276,
        "40": 0.44595193471882366,
        "41": -0.13285962853445532,
        "42": 0.4703050312793763,
        "43": 0.0007496433892572041,
        "44": 0.43227018922776295
      }
    },
    {
      "id": 56,
      "distance": -0.5504233444228428,
      "value": -0.021267614837630552,
      "layer": 2,
      "weights": {
        "15": 0.3229840540531589,
        "16": -0.06028037040715872,
        "17": -0.026133629122477187,
        "18": 0.03913201941191291,
        "19": 0.06834134985927942,
        "20": 0.46377064852731886,
        "21": 0.018298519757809273,
        "22": -0.2567140272235896,
        "23": 0.2983115474973921,
        "24": 0.358481919360775,
        "25": 0.12260348201341631,
        "26": -0.23697114672227948,
        "27": 0.3525193379842616,
        "28": 0.07197762150208376,
        "29": -0.25785352643843595,
        "30": 0.46004018559011806,
        "31": 0.07755654238912213,
        "32": -0.49262984430901813,
        "33": -0.35697261354258947,
        "34": -0.2234014003988115,
        "35": 0.27845933504177767,
        "36": -0.04747551942978179,
        "37": 0.2897170525057654,
        "38": -0.04338458656493227,
        "39": -0.3272329422481668,
        "40": 0.47441009585522353,
        "41": 0.157698389114017,
        "42": 0.33604782033884184,
        "43": -0.05895306844338044,
        "44": -0.3272809819990993
      }
    },
    {
      "id": 57,
      "distance": -0.3749390231766363,
      "value": -0.07885977623989249,
      "layer": 2,
      "weights": {
        "15": -0.339246858639508,
        "16": 0.06455886422385604,
        "17": -0.3742379741248253,
        "18": -0.17680631308118222,
        "19": 0.427287815360765,
        "20": -0.22900789689508794,
        "21": -0.3854192526693867,
        "22": 0.35281190093694403,
        "23": -0.4231657191144683,
        "24": -0.3583521933758319,
        "25": 0.06648075510599138,
        "26": 0.21127387748247084,
        "27": 0.26234128637254583,
        "28": 0.0600491901115493,
        "29": 0.19272812271144202,
        "30": -0.342918119372849,
        "31": 0.43310045869920444,
        "32": -0.3713782315114157,
        "33": -0.2111015953359986,
        "34": -0.10336479698052126,
        "35": 0.03148679790924214,
        "36": 0.43370171197548424,
        "37": -0.141310550743177,
        "38": 0.27438789072047975,
        "39": 0.2799730272541243,
        "40": 0.14685149644863893,
        "41": 0.001586799986119658,
        "42": 0.3981866211584679,
        "43": -0.29200320488021314,
        "44": 0.012367585938594217
      }
    },
    {
      "id": 58,
      "distance": 0.6559107013216074,
      "value": 0.6264148663093367,
      "layer": 2,
      "weights": {
        "15": 0.048006726845165826,
        "16": -0.332079117147539,
        "17": -0.30014620931848246,
        "18": 0.06350838150884319,
        "19": 0.24862733166578188,
        "20": -0.461955833607407,
        "21": -0.3184254130101276,
        "22": -0.4151825428816722,
        "23": -0.17594516230709434,
        "24": 0.2761330879943942,
        "25": 0.46676750003385026,
        "26": 0.4224921389349915,
        "27": -0.1749416307102084,
        "28": 0.030244431320746723,
        "29": -0.4586807951259053,
        "30": 0.2900316958594136,
        "31": -0.15518983663349428,
        "32": 0.19154174792909795,
        "33": 0.49147547378943535,
        "34": 0.3450280697485134,
        "35": 0.4662600691746255,
        "36": 0.14605055352645258,
        "37": -0.2762604059733017,
        "38": -0.26627003009066175,
        "39": -0.3495810658635503,
        "40": -0.1400676791026617,
        "41": 0.45069724029580693,
        "42": 0.12795915033043215,
        "43": 0.4156939352651531,
        "44": -0.009332849499881779
      }
    },
    {
      "id": 59,
      "distance": -0.577044759293432,
      "value": -0.6831298587028091,
      "layer": 2,
      "weights": {
        "15": -0.23859484930715402,
        "16": -0.42287388108932045,
        "17": -0.19316752034666063,
        "18": -0.03260500582048054,
        "19": -0.3836449105084081,
        "20": 0.33572548864372653,
        "21": -0.4789101054491647,
        "22": -0.0038747620595258603,
        "23": -0.3576774509243309,
        "24": 0.18475128641950134,
        "25": -0.41481956494166605,
        "26": -0.24556578247093952,
        "27": 0.40658732262673325,
        "28": -0.23192679375166692,
        "29": 0.2983040415372561,
        "30": -0.10451425288064164,
        "31": -0.1313690314742103,
        "32": -0.268163100026516,
        "33": -0.13542767739903805,
        "34": 0.3109690827158935,
        "35": -0.2810899252794865,
        "36": -0.14532155670901636,
        "37": -0.3867006257462573,
        "38": 0.4955794205219687,
        "39": -0.44659694925978577,
        "40": -0.16713032018658602,
        "41": 0.11442349855413692,
        "42": 0.32178138929103206,
        "43": 0.38972838138925925,
        "44": 0.08597651861856903
      }
    },
    {
      "id": 60,
      "distance": -0.11165897845326178,
      "value": -0.06126875027545991,
      "layer": 2,
      "weights": {
        "15": 0.1359086260214426,
        "16": -0.41107929175835056,
        "17": -0.2048161877577077,
        "18": 0.043984817496322104,
        "19": 0.4891163658534855,
        "20": 0.34139573914266863,
        "21": -0.23810098718953943,
        "22": 0.033525412094418394,
        "23": 0.1520566975949379,
        "24": 0.2046559436703691,
        "25": -0.38269425109036004,
        "26": 0.38767736166307387,
        "27": 0.06912226303701452,
        "28": -0.09928015718391725,
        "29": -0.15615429637855505,
        "30": 0.11689720824779948,
        "31": -0.07637810884186347,
        "32": -0.4403658021964064,
        "33": -0.06612065209659612,
        "34": -0.080923105352113,
        "35": 0.2002219091077131,
        "36": -0.09278875264343622,
        "37": -0.22893907759795107,
        "38": 0.11851973198310739,
        "39": 0.4919613065149089,
        "40": 0.03537090588687275,
        "41": 0.43511499876177095,
        "42": -0.2822537400280094,
        "43": -0.4135047659038301,
        "44": -0.2508530994039234
      }
    },
    {
      "id": 61,
      "distance": 0.9443649653225183,
      "value": 0.33086221918403935,
      "layer": 2,
      "weights": {
        "15": 0.058687096778689996,
        "16": 0.31976887066941617,
        "17": -0.24148735235687668,
        "18": -0.40082907793655287,
        "19": 0.1064947141010244,
        "20": 0.14748909015183487,
        "21": -0.2368969973622208,
        "22": -0.4534074260145512,
        "23": 0.3610414493651748,
        "24": 0.3931905934141321,
        "25": 0.2814827008359375,
        "26": -0.32052123351754236,
        "27": 0.36329960837395636,
        "28": -0.07567245778218623,
        "29": 0.07203351743077613,
        "30": 0.2522081710144489,
        "31": -0.22503256162586582,
        "32": -0.08692582228264034,
        "33": 0.45523082288278427,
        "34": 0.3188901818389688,
        "35": 0.14787635057623538,
        "36": -0.01898714170032878,
        "37": 0.14477004735690657,
        "38": 0.2997048644496838,
        "39": -0.3421639058823871,
        "40": -0.49859386137422024,
        "41": 0.15516664581175488,
        "42": 0.41638691726511834,
        "43": 0.3351900321370579,
        "44": 0.42430024017445933
      }
    },
    {
      "id": 62,
      "distance": -0.3683780508794541,
      "value": -0.29929191568060975,
      "layer": 2,
      "weights": {
        "15": -0.2218913613075001,
        "16": 0.45335012807877206,
        "17": -0.4474940104453681,
        "18": -0.21215421722636474,
        "19": -0.10215861828525785,
        "20": -0.32353325843976344,
        "21": 0.29063411037862763,
        "22": -0.3453631609995116,
        "23": 0.2550213518104608,
        "24": 0.09988967080741296,
        "25": 0.11917292708827398,
        "26": -0.07579622549180076,
        "27": -0.3514854255560237,
        "28": -0.4793382015885055,
        "29": 0.17630370846090815,
        "30": -0.32887946037483695,
        "31": 0.2645007420825076,
        "32": 0.01042705548773648,
        "33": 0.07214089293443537,
        "34": 0.3500086244294539,
        "35": 0.10935844065884848,
        "36": -0.4510487165003636,
        "37": -0.4458931624158381,
        "38": 0.4392500756675146,
        "39": -0.42381107770041015,
        "40": -0.3492915237485392,
        "41": -0.4269332782906764,
        "42": 0.4122020103922067,
        "43": -0.07434503776068935,
        "44": 0.09251361746876352
      }
    },
    {
      "id": 63,
      "distance": 0.5477400550362841,
      "value": -0.1333561462773402,
      "layer": 2,
      "weights": {
        "15": -0.22263931483377453,
        "16": 0.1801345596064291,
        "17": -0.3220921658327969,
        "18": 0.12990702282577482,
        "19": -0.4961830762254881,
        "20": 0.4086096343917227,
        "21": -0.1516548334629213,
        "22": -0.2904460449324455,
        "23": 0.4400162963873985,
        "24": 0.269296478824808,
        "25": 0.4075307747967195,
        "26": -0.4762535965060738,
        "27": -0.18040204575679486,
        "28": -0.455276643249623,
        "29": 0.39359677491865275,
        "30": 0.09870518469130951,
        "31": 0.11733946472867174,
        "32": -0.42450326812952666,
        "33": -0.4222094668143671,
        "34": 0.4050332832412239,
        "35": -0.3120568793486681,
        "36": -0.0588433062068604,
        "37": -0.22186415368831436,
        "38": 0.007186250967852192,
        "39": -0.4595310019816434,
        "40": 0.15019690060383417,
        "41": 0.31970392492540867,
        "42": 0.0808062774231959,
        "43": -0.08238323477913856,
        "44": 0.37698782817265974
      }
    },
    {
      "id": 64,
      "distance": -0.5536513079916017,
      "value": 0.21988487978867183,
      "layer": 2,
      "weights": {
        "15": -0.35090275704525553,
        "16": -0.1312885032671025,
        "17": 0.4437428488965024,
        "18": -0.022071568252822416,
        "19": 0.10827146826474832,
        "20": 0.004241746041153016,
        "21": -0.3222342021122715,
        "22": -0.33779926151791184,
        "23": -0.3634727861956515,
        "24": -0.27279300727291156,
        "25": 0.39507872283511813,
        "26": -0.05849435756469423,
        "27": -0.2118807973457295,
        "28": -0.4584795197658186,
        "29": -0.3516348758503599,
        "30": 0.4300400223769171,
        "31": 0.3745312626125288,
        "32": 0.1035438680343227,
        "33": 0.40439823093122074,
        "34": -0.2821544064981554,
        "35": -0.04884408488430636,
        "36": -0.48458591901405135,
        "37": -0.06772533019966309,
        "38": -0.26444444462610195,
        "39": 0.2562842901634166,
        "40": 0.08733092437456536,
        "41": 0.2702980906044913,
        "42": -0.4578822614073401,
        "43": 0.3999602376357221,
        "44": -0.3834620328495595
      }
    },
    {
      "id": 65,
      "distance": 0.5047390449912315,
      "value": -0.0009711230767852075,
      "layer": 2,
      "weights": {
        "15": 0.09429619479200868,
        "16": -0.28336876382932974,
        "17": 0.05079447006281135,
        "18": -0.11360848121151856,
        "19": 0.07258655333159114,
        "20": -0.017974593483590984,
        "21": -0.16622723382333027,
        "22": -0.14677141510113945,
        "23": -0.19343368547120965,
        "24": -0.26300710968347074,
        "25": -0.2232609892678945,
        "26": 0.07126889465207009,
        "27": 0.08003304973674541,
        "28": -0.4531505536295114,
        "29": -0.3624879609508074,
        "30": -0.36877867007505316,
        "31": -0.3910507287224969,
        "32": 0.18415831318085008,
        "33": 0.14441876569981138,
        "34": -0.28489765922574395,
        "35": 0.019426267854149804,
        "36": -0.3961424466877723,
        "37": 0.44509454976004525,
        "38": 0.3185125088903572,
        "39": -0.38737743703947813,
        "40": 0.2731241671339496,
        "41": 0.06391203250284838,
        "42": -0.0363084301396881,
        "43": 0.10152877974420826,
        "44": 0.4259799290930413
      }
    },
    {
      "id": 66,
      "distance": -0.8999909466685463,
      "value": 1.5764820716849441,
      "layer": 2,
      "weights": {
        "15": -0.03756729317777685,
        "16": 0.4072693460389246,
        "17": 0.06126778754767426,
        "18": -0.46505311758626167,
        "19": 0.03723895925409293,
        "20": -0.30913399548439124,
        "21": -0.07811912901614337,
        "22": -0.36058472631931726,
        "23": 0.014481692319110673,
        "24": 0.1263068589121139,
        "25": 0.42988863166746216,
        "26": -0.18020684566220857,
        "27": -0.39957623148383836,
        "28": -0.41129502991325084,
        "29": 0.062202697054469014,
        "30": -0.28126023020310476,
        "31": -0.26702310430078124,
        "32": 0.313292730191847,
        "33": -0.3362616218246993,
        "34": 0.2865983620970297,
        "35": -0.23489062838667785,
        "36": 0.07017377295646354,
        "37": 0.19752377052734904,
        "38": 0.4799862723713969,
        "39": -0.02224854988249847,
        "40": -0.39023613375194655,
        "41": 0.33558175915830657,
        "42": 0.34718686262937826,
        "43": 0.11890212791300248,
        "44": 0.04174810661730466
      }
    },
    {
      "id": 67,
      "distance": 0.024619531033576614,
      "value": -0.06496183884003022,
      "layer": 2,
      "weights": {
        "15": -0.18083618395526924,
        "16": -0.0743607297541049,
        "17": -0.09097920679464688,
        "18": 0.028926771035138965,
        "19": 0.2053298949116268,
        "20": 0.04344672200185806,
        "21": -0.2902698766521139,
        "22": 0.05733896165900643,
        "23": 0.3322431095606406,
        "24": -0.25562053425164677,
        "25": 0.1472221767661327,
        "26": 0.08519639313979066,
        "27": 0.3171550068281246,
        "28": -0.2755648575613042,
        "29": -0.13758917999114784,
        "30": -0.11534590814440038,
        "31": 0.19248391555251754,
        "32": 0.09046172349835335,
        "33": -0.2899862049026338,
        "34": -0.05577761255775804,
        "35": -0.06951018289627897,
        "36": 0.009893682251127522,
        "37": 0.16737842488264254,
        "38": -0.3624501391022914,
        "39": -0.353159134759623,
        "40": 0.38889090334906196,
        "41": -0.18148464312153145,
        "42": -0.024432450044183707,
        "43": -0.40227400346011455,
        "44": 0.016400290427498465
      }
    },
    {
      "id": 68,
      "distance": -0.2799806596819707,
      "value": -0.13074765304326214,
      "layer": 2,
      "weights": {
        "15": -0.028184464388166686,
        "16": 0.2452164544937261,
        "17": -0.2663793463799091,
        "18": 0.33042159394032133,
        "19": 0.29039982697640065,
        "20": 0.2405302468997389,
        "21": -0.02201749846357326,
        "22": -0.3918967108058824,
        "23": 0.26068447948645346,
        "24": 0.4516482561995604,
        "25": 0.046300017485454203,
        "26": 0.46926860566527395,
        "27": 0.49293570038508483,
        "28": -0.35292809475045683,
        "29": -0.28336144572103816,
        "30": 0.18663286553598923,
        "31": -0.05840407506641121,
        "32": -0.1438960141112421,
        "33": -0.31791081325362236,
        "34": 0.08527057700628371,
        "35": 0.45354517578901377,
        "36": -0.30583962058442327,
        "37": 0.3150200668888925,
        "38": 0.2496487485443245,
        "39": 0.24586926616516602,
        "40": -0.1515543195034167,
        "41": -0.21707229080491042,
        "42": -0.15951701369596083,
        "43": -0.35974214539739946,
        "44": 0.032059352879959646
      }
    },
    {
      "id": 69,
      "distance": 0.21888197388830521,
      "value": 1.071361412868093,
      "layer": 2,
      "weights": {
        "15": 0.03364814698274199,
        "16": -0.01122850553637933,
        "17": -0.3169375998961138,
        "18": -0.2210542528463355,
        "19": 0.2469059698944035,
        "20": 0.37233999555039765,
        "21": 0.2674364497817143,
        "22": -0.49014830668652376,
        "23": 0.16969619327361418,
        "24": 0.3297168068272631,
        "25": -0.08659206877245673,
        "26": -0.46140665972812045,
        "27": -0.29461698959436133,
        "28": -0.23229528819178602,
        "29": -0.2680905303957132,
        "30": 0.08714843778633574,
        "31": 0.43984297717260756,
        "32": -0.2516931893454132,
        "33": -0.38930160187527685,
        "34": 0.03296901620159187,
        "35": 0.18752092305578172,
        "36": -0.2653989222753437,
        "37": 0.20113592990934304,
        "38": -0.22276298960075125,
        "39": 0.09371781860372719,
        "40": -0.30133043713883556,
        "41": 0.4117308584838768,
        "42": 0.14191661177798964,
        "43": 0.12733399655685695,
        "44": -0.023234708334889165
      }
    },
    {
      "id": 70,
      "distance": 0.5936380333139715,
      "value": 1.3097733194140144,
      "layer": 2,
      "weights": {
        "15": -0.43802865608775476,
        "16": 0.4609992061837188,
        "17": -0.1403919793323739,
        "18": -0.09253418949118619,
        "19": 0.25647016292134195,
        "20": 0.33570709978668234,
        "21": -0.3405243525970192,
        "22": -0.035542525686551474,
        "23": 0.2525973161547789,
        "24": -0.25099840547624996,
        "25": -0.00045608182079770465,
        "26": -0.20648584323103425,
        "27": 0.42018146565849646,
        "28": -0.12133134181378569,
        "29": 0.0042885184016724365,
        "30": -0.13236430922358888,
        "31": -0.3359284733587262,
        "32": -0.0852713660887835,
        "33": 0.2632197129528342,
        "34": -0.1779189590126652,
        "35": -0.3496314948235538,
        "36": 0.1901425459878443,
        "37": -0.2983619060590299,
        "38": -0.3266540178157512,
        "39": -0.3876779201811984,
        "40": 0.4115479090319405,
        "41": 0.19859287593813646,
        "42": -0.1337814192854334,
        "43": -0.1232477629168397,
        "44": 0.45802277441621264
      }
    },
    {
      "id": 71,
      "distance": -0.005582477798135921,
      "value": 1.0394387689755424,
      "layer": 2,
      "weights": {
        "15": 0.23427627126924566,
        "16": 0.44407823573596317,
        "17": 0.11545361776439211,
        "18": 0.16711093225378781,
        "19": 0.021899602482186142,
        "20": -0.0683832454915253,
        "21": 0.33874432991105796,
        "22": -0.008094807588617359,
        "23": 0.050861154990756496,
        "24": 0.012125615230347608,
        "25": 0.002940912874043855,
        "26": -0.06589369786479615,
        "27": -0.4343388090977399,
        "28": -0.42912736810618946,
        "29": -0.07638410577548271,
        "30": 0.44169706285311305,
        "31": 0.3126914444785015,
        "32": -0.3141402809833207,
        "33": 0.2540893117845143,
        "34": 0.40536392249027164,
        "35": -0.041016823868509356,
        "36": -0.16317102334298572,
        "37": -0.20054194525465174,
        "38": 0.16101685982367853,
        "39": -0.2729552648783198,
        "40": -0.22704489081372292,
        "41": -0.045309927214558066,
        "42": -0.2845143709623109,
        "43": 0.3344144125099533,
        "44": 0.3379013752128873
      }
    },
    {
      "id": 72,
      "distance": 0.20618443670252717,
      "value": -0.6792165415087743,
      "layer": 2,
      "weights": {
        "15": -0.10632839597807386,
        "16": 0.29887207972690844,
        "17": -0.42858591486495257,
        "18": 0.21287118436936592,
        "19": -0.387869374384641,
        "20": -0.11354670110692588,
        "21": 0.22075551681060124,
        "22": 0.19368652443513712,
        "23": -0.33331826056093883,
        "24": -0.007019523897961899,
        "25": -0.15136716344358203,
        "26": 0.41078157255778613,
        "27": 0.33786322847321903,
        "28": -0.10224333595854096,
        "29": 0.029266245219931597,
        "30": 0.1441963136673814,
        "31": 0.26963275836457967,
        "32": 0.3658074195644826,
        "33": 0.4518635430326451,
        "34": -0.19906262609763725,
        "35": -0.41232224996801814,
        "36": -0.08411729828200398,
        "37": 0.47267529729556534,
        "38": 0.39335278153581277,
        "39": -0.27038741288915735,
        "40": -0.08375152246516082,
        "41": -0.3608843378645479,
        "42": -0.16823482975984771,
        "43": 0.43881516613113236,
        "44": 0.1638975740462909
      }
    },
    {
      "id": 73,
      "distance": -0.8886146891511959,
      "value": -0.038298488058074495,
      "layer": 2,
      "weights": {
        "15": -0.12985078684335005,
        "16": 0.1605888686294702,
        "17": 0.180780057169316,
        "18": -0.08201044372904742,
        "19": -0.19792325911697162,
        "20": 0.483450902696965,
        "21": -0.10603069360097217,
        "22": 0.1705968338879048,
        "23": -0.11901243644354109,
        "24": 0.4695057994359588,
        "25": 0.44666955985523904,
        "26": -0.3772633986847238,
        "27": 0.4284857591027984,
        "28": -0.44945476632097325,
        "29": -0.3514278006334475,
        "30": -0.1974161494007346,
        "31": -0.23310065314252704,
        "32": -0.15101166821374856,
        "33": 0.2973188929481111,
        "34": 0.2975360478976946,
        "35": -0.3015665990664068,
        "36": 0.33509313029224463,
        "37": -0.27622290806550764,
        "38": 0.3061549964864346,
        "39": 0.07399774608766574,
        "40": 0.3753022625674852,
        "41": -0.32655993459363575,
        "42": 0.40908162453443875,
        "43": 0.3496504081049724,
        "44": -0.24430594057263044
      }
    },
    {
      "id": 74,
      "distance": 0.8345646160526103,
      "value": -0.09789953116001678,
      "layer": 2,
      "weights": {
        "15": -0.16142460325905894,
        "16": 0.04658933664303988,
        "17": 0.03343068610477817,
        "18": -0.2584262861160065,
        "19": 0.00044352405817316143,
        "20": 0.00449389220479901,
        "21": 0.20946792232027012,
        "22": 0.23826140066822732,
        "23": 0.4806590206976423,
        "24": -0.013278018644667045,
        "25": -0.48196794768591855,
        "26": -0.3581411140000127,
        "27": 0.04607427983107293,
        "28": 0.036828994283395255,
        "29": 0.28428329902469185,
        "30": -0.36491983756951807,
        "31": 0.35764451025607435,
        "32": -0.0943576525383758,
        "33": 0.45700552662738814,
        "34": -0.33535376772247705,
        "35": 0.17390606052897706,
        "36": -0.1931183960695554,
        "37": -0.23208047411437593,
        "38": 0.02971403932213823,
        "39": -0.028601536789900295,
        "40": -0.2858026995612991,
        "41": 0.334383857548069,
        "42": 0.24974267906902725,
        "43": 0.07545667111945398,
        "44": -0.23597278550306533
      }
    },
    {
      "id": 75,
      "distance": -0.1414893972770197,
      "value": 0.15769954384645052,
      "layer": 3,
      "weights": {
        "45": 0.22086274928862748,
        "46": 0.12931433102057788,
        "47": -0.35410168735857084,
        "48": 0.13890756935094362,
        "49": 0.2949577085780499,
        "50": 0.35980794416356643,
        "51": -0.42875079380602843,
        "52": -0.3469847728756611,
        "53": -0.377707556348273,
        "54": 0.2354142037729039,
        "55": -0.0634986213632226,
        "56": -0.04525096628012415,
        "57": 0.432096442319713,
        "58": -0.25012262882900227,
        "59": 0.16749842870886766,
        "60": 0.16793043707524913,
        "61": -0.011627442818032518,
        "62": 0.2933289782608455,
        "63": 0.05686325830674799,
        "64": 0.22060991904772154,
        "65": -0.2477280995147223,
        "66": -0.4807385719510654,
        "67": 0.30961695146892476,
        "68": 0.12432998024917674,
        "69": 0.1309358372508166,
        "70": 0.21292984547178706,
        "71": -0.40571502277575455,
        "72": -0.2453694704600271,
        "73": 0.051794878793698595,
        "74": 0.04711030628788693
      }
    }
  ]
}