{
  "epoch": 15,
  "neurons": [
    {
      "id": 0,
      "distance": 0.0,
      "value": -0.306800168279705,
      "layer": 0,
      "weights": {}
    },
    {
      "id": 1,
      "distance": 0.0,
      "value": -0.21886330483983318,
      "layer": 0,
      "weights": {}
    },
    {
      "id": 2,
      "distance": 0.0,
      "value": -0.0716963307862437,
      "layer": 0,
      "weights": {}
    },
    {
      "id": 3,
      "distance": 0.0,
      "value": -0.16425841142030403,
      "layer": 0,
      "weights": {}
    },
    {
      "id": 4,
      "distance": 0.0,
      "value": -0.08410251072384499,
      "layer": 0,
      "weights": {}
    },
    {
      "id": 5,
      "distance": 0.0,
      "value": -0.22834808735672982,
      "layer": 0,
      "weights": {}
    },
    {
      "id": 6,
      "distance": 0.0,
      "value": -0.056067948569777454,
      "layer": 0,
      "weights": {}
    },
    {
      "id": 7,
      "distance": 0.0,
      "value": -0.14534655868657997,
      "layer": 0,
      "weights": {}
    },
    {
      "id": 8,
      "distance": 0.0,
      "value": -0.23746076079031375,
      "layer": 0,
      "weights": {}
    },
    {
      "id": 9,
      "distance": 0.0,
      "value": -0.21515204513641975,
      "layer": 0,
      "weights": {}
    },
    {
      "id": 10,
      "distance": 0.0,
      "value": -0.09217346535790058,
      "layer": 0,
      "weights": {}
    },
    {
      "id": 11,
      "distance": 0.0,
      "value": -0.2927485613927033,
      "layer": 0,
      "weights": {}
    },
    {
      "id": 12,
      "distance": 0.0,
      "value": -0.1226834391578697,
      "layer": 0,
      "weights": {}
    },
    {
      "id": 13,
      "distance": 0.0,
      "value": -0.09539203671853581,
      "layer": 0,
      "weights": {}
    },
    {
      "id": 14,
      "distance": 0.0,
      "value": -0.11240127628832498,
      "layer": 0,
      "weights": {}
    },
    {
      "id": 15,
      "distance": 0.5726088686659745,
      "value": -0.08630540382033836,
      "layer": 1,
      "weights": {
        "0": 0.47175501179645773,
        "1": -0.4712083811561759,
        "2": 0.4378945220576308,
        "3": -0.27771830451337054,
        "4": -0.3705886362754286,
        "5": 0.0974578744409974,
        "6": 0.33885901991480416,
        "7": 0.4566738112917553,
        "8": -0.1357212570038029,
        "9": 0.32768945086113765,
        "10": -0.4692093355180138,
        "11": 0.46850609583419767,
        "12": -0.20654014613724114,
        "13": 0.043508332496083435,
        "14": -0.37566335864738376
      }
    },
    {
      "id": 16,
      "distance": -0.9123444908203584,
      "value": 0.09802755287382703,
      "layer": 1,
      "weights": {
        "0": -0.49231017780057273,
        "1": 0.10015743715621162,
        "2": 0.06112325425159526,
        "3": 0.3159456276832924,
        "4": 0.3511398111737496,
        "5": -0.07654691165677108,
        "6": 0.34734228769747044,
        "7": -0.299268409191046,
        "8": 0.3808895345850386,
        "9": -0.24945654573011278,
        "10": 0.4397522257583645,
        "11": -0.11569171498036923,
        "12": -0.0719370424216601,
        "13": 0.018320069879217526,
        "14": -0.44108316973279305
      }
    },
    {
      "id": 17,
      "distance": -0.8502182643737168,
      "value": -0.0481163360994296,
      "layer": 1,
      "weights": {
        "0": 0.044937637065757596,
        "1": 0.21409223064154304,
        "2": -0.455251231439332,
        "3": -0.09324890212682235,
        "4": -0.13003193142884695,
        "5": 0.2811545356453813,
        "6": 0.49043696309004337,
        "7": -0.40941178907197273,
        "8": 0.04368795697979766,
        "9": -0.3958148106392959,
        "10": 0.28374018553663427,
        "11": 0.44221704766508285,
        "12": 0.20647516442369984,
        "13": 0.08154150154315021,
        "14": -0.45947599148535423
      }
    },
    {
      "id": 18,
      "distance": -0.8074740368803837,
      "value": -0.010449060763353085,
      "layer": 1,
      "weights": {
        "0": -0.2603247628116049,
        "1": -0.41826393484197133,
        "2": -0.3662144342160456,
        "3": 0.45931356606235885,
        "4": -0.15207688599491087,
        "5": 0.4068589494193837,
        "6": 0.2608350187915398,
        "7": 0.2754008543430423,
        "8": 0.4128589308406537,
        "9": 0.19791057285855596,
        "10": -0.15235342442073896,
        "11": -0.030329208053290424,
        "12": -0.10992863244563578,
        "13": -0.46770431871344254,
        "14": -0.45591223126696734
      }
    },
    {
      "id": 19,
      "distance": 0.13518729818096387,
      "value": 0.16164640927253837,
      "layer": 1,
      "weights": {
        "0": 0.02274068528069917,
        "1": 0.47242645890211055,
        "2": 0.12060851562655539,
        "3": 0.3186881593462594,
        "4": -0.02349320774325847,
        "5": 0.08201508360382159,
        "6": 0.31554718025720574,
        "7": -0.46592895169016135,
        "8": -0.4808501093978811,
        "9": -0.07037834041792235,
        "10": -0.2077981086632812,
        "11": -0.07190611091346,
        "12": -0.4359884389359986,
        "13": -0.3311088390736602,
        "14": -0.40155119399177774
      }
    },
    {
      "id": 20,
      "distance": 0.21742906970172582,
      "value": 0.17602175228077532,
      "layer": 1,
      "weights": {
        "0": -0.46696122825160635,
        "1": -0.47948870923747977,
        "2": 0.18070267080317692,
        "3": -0.076707902955933,
        "4": -0.477237442093855,
        "5": 0.44042437729745665,
        "6": -0.00940354303017088,
        "7": 0.4370814958337941,
        "8": 0.14854649176637869,
        "9": 0.04693016946528916,
        "10": -0.10479811557403451,
        "11": -0.39937114632978776,
        "12": 0.46580723827249537,
        "13": -0.060352517382195936,
        "14": -0.19387121323969203
      }
    },
    {
      "id": 21,
      "distance": -0.7090323889508143,
      "value": -0.02766259638352303,
      "layer": 1,
      "weights": {
        "0": 0.09578436985735639,
        "1": 0.48323542167144695,
        "2": -0.0981627358236512,
        "3": 0.3070623823725368,
        "4": 0.19984668553979934,
        "5": 0.015111036002754208,
        "6": 0.1533523728402203,
        "7": 0.23234762366418227,
        "8": 0.42833643919812625,
        "9": -0.4558710603140542,
        "10": -0.35616197141193107,
        "11": -0.25764862206994754,
        "12": -0.4327161744204394,
        "13": -0.21886706110948306,
        "14": -0.0646094197754844
      }
    },
    {
      "id": 22,
      "distance": -0.5632533631283476,
      "value": 0.07669930766074401,
      "layer": 1,
      "weights": {
        "0": -0.0005633515157431601,
        "1": -0.4932603275408667,
        "2": 0.4139380676677019,
        "3": 0.21456074789364665,
        "4": -0.39638604206423345,
        "5": -0.28694103500334767,
        "6": 0.2576106496125229,
        "7": -0.3572575334062591,
        "8": 0.2341982806795988,
        "9": -0.462194323806735,
        "10": 0.12199133614028268,
        "11": 0.18050658499861172,
        "12": 0.04139531526878426,
        "13": 0.29459335032163203,
        "14": 0.43960516544924544
      }
    },
    {
      "id": 23,
      "distance": 0.9704636492628125,
      "value": 0.36717336275788187,
      "layer": 1,
      "weights": {
        "0": -0.44685050555954875,
        "1": -0.015431154243681355,
        "2": -0.38395388858722157,
        "3": 0.244184797530282,
        "4": -0.2941137228735363,
        "5": -0.33223220534136,
        "6": -0.44070440122756893,
        "7": -0.4844060666553798,
        "8": -0.2385686530385629,
        "9": -0.30474813525404765,
        "10": 0.023754465860403196,
        "11": 0.31949695634729347,
        "12": 0.2210288009987318,
        "13": -0.17573217326946577,
        "14": -0.243984544563276
      }
    },
    {
      "id": 24,
      "distance": 0.5579145519040443,
      "value": 0.3358158483867522,
      "layer": 1,
      "weights": {
        "0": -0.224717908332007,
        "1": 0.14812686511888773,
        "2": 0.47051330520542267,
        "3": 0.08035054675942244,
        "4": -0.027149045549181405,
        "5": -0.45086984460187085,
        "6": -0.23823336955521013,
        "7": 0.44919553312829585,
        "8": -0.44312803610605267,
        "9": -0.4459223970929732,
        "10": 0.1026904418903305,
        "11": -0.19235667447717086,
        "12": 0.09877501649109588,
        "13": -0.26761768776867345,
        "14": -0.28018758022600143
      }
    },
    {
      "id": 25,
      "distance": -0.49616131925312557,
      "value": -0.004940177771703358,
      "layer": 1,
      "weights": {
        "0": 0.2142653496497584,
        "1": 0.1939954430341072,
        "2": -0.4718666180371346,
        "3": 0.20914424449346347,
        "4": 0.26251707382275047,
        "5": -0.0320280917239576,
        "6": -0.4053313074164334,
        "7": -0.4866776633116774,
        "8": 0.47895354416541913,
        "9": -0.4004657131581123,
        "10": -0.4989101151649248,
        "11": -0.43966471594667267,
        "12": 0.4083116552624392,
        "13": 0.49895604398856486,
        "14": 0.26064808358196234
      }
    },
    {
      "id": 26,
      "distance": 0.8780665516946335,
      "value": -0.02372363926126527,
      "layer": 1,
      "weights": {
        "0": 0.3090634489957138,
        "1": -0.4278162409762144,
        "2": -0.12108724055544096,
        "3": 0.14110141213461536,
        "4": 0.18834221425464348,
        "5": 0.26401747539746157,
        "6": 0.19243645186633207,
        "7": -0.38169189927167513,
        "8": -0.10419037569146272,
        "9": 0.4462782871792398,
        "10": 0.1442942982013654,
        "11": -0.30991614778318377,
        "12": -0.08247521332019114,
        "13": 0.4552908360774227,
        "14": -0.23876539055670876
      }
    },
    {
      "id": 27,
      "distance": -0.7988084162028137,
      "value": -0.06755100163744421,
      "layer": 1,
      "weights": {
        "0": 0.31139418104326044,
        "1": 0.1500953366515423,
        "2": -0.13098151370227518,
        "3": -0.032976052003277245,
        "4": -0.233532591594652,
        "5": 0.19086217216531465,
        "6": -0.1991152631973816,
        "7": 0.051313297600798724,
        "8": 0.4225160236082781,
        "9": 0.15731890920935954,
        "10": -0.1486103982365532,
        "11": -0.3637309310753427,
        "12": -0.0025820808618285396,
        "13": -0.45139802553650554,
        "14": 0.27281289263878794
      }
    },
    {
      "id": 28,
      "distance": -0.0654963089908549,
      "value": 0.3572089436453987,
      "layer": 1,
      "weights": {
        "0": -0.05302272377576589,
        "1": -0.20186760855429353,
        "2": 0.2011962297322133,
        "3": -0.05503903519075637,
        "4": -0.05796172110954678,
        "5": -0.2935076716353213,
        "6": -0.42108314278402026,
        "7": -0.42348955870387517,
        "8": -0.26714416913892636,
        "9": 0.2395254807255186,
        "10": 0.1625798032205127,
        "11": -0.30519548974390154,
        "12": -0.467769212230291,
        "13": -0.23031930046042448,
        "14": 0.18268584195900983
      }
    },
    {
      "id": 29,
      "distance": -0.5081236426453788,
      "value": -0.14541996578649682,
      "layer": 1,
      "weights": {
        "0": -0.04022911287561115,
        "1": -0.3813472376956121,
        "2": 0.28909521812579486,
        "3": 0.07621918926057292,
        "4": -0.059561916520992964,
        "5": 0.4890703366920054,
        "6": 0.008500823354702813,
        "7": -0.22449040251474228,
        "8": 0.18365908489022031,
        "9": 0.4510047189785148,
        "10": 0.12479269340627275,
        "11": 0.42244105883951366,
        "12": 0.05175003705483472,
        "13": -0.20195766174704488,
        "14": 0.14216948263855156
      }
    },
    {
      "id": 30,
      "distance": -0.8661137901177365,
      "value": 0.26064471151672847,
      "layer": 2,
      "weights": {
        "15": 0.48563384660390696,
        "16": 0.0032471635839860236,
        "17": -0.46709530095507623,
        "18": -0.19731576631861847,
        "19": 0.12327076231046707,
        "20": 0.3553646277521094,
        "21": 0.41956470628820797,
        "22": -0.13468680798117638,
        "23": 0.39306799692367955,
        "24": 0.008319127259855064,
        "25": 0.07349184419623422,
        "26": 0.3703620928623087,
        "27": 0.21674317765843354,
        "28": 0.0657173668294897,
        "29": -0.48383310680299507
      }
    },
    {
      "id": 31,
      "distance": -0.32358276867839697,
      "value": 0.029863848490692534,
      "layer": 2,
      "weights": {
        "15": 0.24419678570184478,
        "16": -0.08478096343425878,
        "17": -0.47282894146840704,
        "18": 0.3581409529697377,
        "19": -0.13714528709539653,
        "20": 0.23806814078126137,
        "21": -0.15172813844115696,
        "22": -0.133136382393524,
        "23": 0.0907642479199916,
        "24": 0.01292967095212294,
        "25": 0.4241829793421179,
        "26": 0.0863472708305335,
        "27": -0.146084380067786,
        "28": 0.05575010983747286,
        "29": 0.2529705475501193
      }
    },
    {
      "id": 32,
      "distance": 0.47379605426604465,
      "value": 0.0047503603466755116,
      "layer": 2,
      "weights": {
        "15": -0.48521434341804215,
        "16": 0.020446700636076454,
        "17": 0.39394101955038463,
        "18": -0.029351595838288058,
        "19": -0.34019141805716546,
        "20": -0.3572042913515522,
        "21": 0.035065830539579346,
        "22": 0.31081798600092847,
        "23": 0.2655249564050054,
        "24": -0.10704732494846536,
        "25": -0.4468000553957404,
        "26": -0.1910999386360771,
        "27": 0.09166819076165689,
        "28": -0.006843629625301162,
        "29": -0.10222227432514908
      }
    },
    {
      "id": 33,
      "distance": -0.5917952052276774,
      "value": -0.1071343480541456,
      "layer": 2,
      "weights": {
        "15": -0.04825705830813143,
        "16": -0.3397801536042713,
        "17": 0.13556091670421877,
        "18": -0.3511973262892467,
        "19": -0.34902779481571533,
        "20": 0.4352122661838934,
        "21": -0.47651588246879517,
        "22": -0.1456314955896909,
        "23": -0.003913584192709818,
        "24": -0.3959140691054758,
        "25": -0.13874060396221788,
        "26": 0.3860581948238573,
        "27": 0.2686287451128171,
        "28": -0.16646851119958184,
        "29": -0.11004257586257749
      }
    },
    {
      "id": 34,
      "distance": -0.44889296160824554,
      "value": 0.2460671973014817,
      "layer": 2,
      "weights": {
        "15": 0.33474742190598383,
        "16": -0.1844879208932403,
        "17": 0.2564389403179539,
        "18": 0.463399443773305,
        "19": -0.21373170384131035,
        "20": 0.13120687613463367,
        "21": 0.3125329884050606,
        "22": 0.03684581275374055,
        "23": 0.4284788846141925,
        "24": -0.21970262437558696,
        "25": -0.028402406812397918,
        "26": -0.14418503127946203,
        "27": -0.21113446596980445,
        "28": 0.4539664655188732,
        "29": -0.439872064332658
      }
    },
    {
      "id": 35,
      "distance": -0.2846256584087983,
      "value": -0.001414620294257929,
      "layer": 2,
      "weights": {
        "15": 0.4845188377627748,
        "16": -0.23452938495870213,
        "17": 0.17068629848340522,
        "18": 0.3732529480589477,
        "19": -0.26432714912587807,
        "20": -0.2871116215191414,
        "21": 0.17911509575117457,
        "22": -0.43446756091696814,
        "23": 0.10874840144263997,
        "24": 0.3891513210133073,
        "25": 0.40512099770497767,
        "26": 0.4064603685893905,
        "27": -0.017955323003186807,
        "28": 0.31488960280013023,
        "29": 0.46093174602983134
      }
    },
    {
      "id": 36,
      "distance": 0.40306974191251244,
      "value": -0.17227891836846065,
      "layer": 2,
      "weights": {
        "15": -0.2456023036286683,
        "16": 0.26094892052295937,
        "17": 0.014349850300546252,
        "18": -0.07282297504544732,
        "19": -0.3358509392921214,
        "20": 0.3235066275653121,
        "21": 0.16758228759346894,
        "22": -0.4629131899763028,
        "23": -0.29813253166964204,
        "24": -0.4596890746103802,
        "25": 0.04463332189490732,
        "26": 0.21904009363980692,
        "27": -0.157976140527321,
        "28": -0.3115047561711194,
        "29": -0.10958223485838314
      }
    },
    {
      "id": 37,
      "distance": 0.22438891667694572,
      "value": -0.1257567739174471,
      "layer": 2,
      "weights": {
        "15": -0.4514588416815607,
        "16": -0.4196817198303696,
        "17": 0.16148563718828235,
        "18": 0.40766888375107946,
        "19": 0.07278494376751887,
        "20": -0.423561182136322,
        "21": 0.011223234262542903,
        "22": -0.2341905308486717,
        "23": 0.041865092706370954,
        "24": -0.23719359845589494,
        "25": -0.2428761439886582,
        "26": 0.4611311217255847,
        "27": -0.1391395456742912,
        "28": -0.05495281292930654,
        "29": 0.4950577911774462
      }
    },
    {
      "id": 38,
      "distance": -0.11132940821753201,
      "value": -0.01005585675198672,
      "layer": 2,
      "weights": {
        "15": -0.16472825928442136,
        "16": -0.23599792530111652,
        "17": -0.3425067491406305,
        "18": 0.3355287855299828,
        "19": 0.4420161358899771,
        "20": 0.09467136866857206,
        "21": 0.1217533227014278,
        "22": -0.39096875536613396,
        "23": -0.43366710990057333,
        "24": -0.13257709236511228,
        "25": -0.4390607171384979,
        "26": 0.21133080904517032,
        "27": 0.21046484188057435,
        "28": 0.3485802691444304,
        "29": -0.11944756481845631
      }
    },
    {
      "id": 39,
      "distance": -0.0017889036364580058,
      "value": -0.07871250578932126,
      "layer": 2,
      "weights": {
        "15": -0.4404500084091685,
        "16": -0.08213491682149154,
        "17": 0.40885895794612226,
        "18": -0.27860927020042825,
        "19": 0.0828950517907302,
        "20": 0.04401345302697779,
        "21": -0.2669624426139764,
        "22": -0.20657335614154404,
        "23": -0.3981484935578211,
        "24": 0.33464614515719804,
        "25": 0.37245285942394135,
        "26": 0.34154193230858954,
        "27": 0.39984659918468834,
        "28": -0.4772570159126509,
        "29": -0.39836448413182446
      }
    },
    {
      "id": 40,
      "distance": -0.41263444856941756,
      "value": -0.16341482749115896,
      "layer": 2,
      "weights": {
        "15": -0.3534948856877058,
        "16": 0.18143155540261846,
        "17": 0.10133941221287868,
        "18": -0.1624060065515759,
        "19": 0.4937342204018158,
        "20": -0.48417854423137396,
        "21": -0.2879536333012038,
        "22": -0.32325975627852965,
        "23": -0.4487405752577046,
        "24": -0.20216408612069292,
        "25": 0.17028212128214282,
        "26": 0.4803084356996843,
        "27": 0.04691591065386658,
        "28": -0.27690446972813454,
        "29": 0.018753820650800446
      }
    },
    {
      "id": 41,
      "distance": 0.11854474672304827,
      "value": -0.019221261981307136,
      "layer": 2,
      "weights": {
        "15": -0.3164995605425559,
        "16": 0.17072326321253406,
        "17": 0.377811499849962,
        "18": 0.1762017210231066,
        "19": -0.3886460332659991,
        "20": 0.06267841905400207,
        "21": 0.46724068418814624,
        "22": 0.22199525258226682,
        "23": -0.15424678337174735,
        "24": -0.2399345443516211,
        "25": 0.2878771336781514,
        "26": -0.20813301940814866,
        "27": 0.469744361754608,
        "28": 0.4552156283763148,
        "29": 0.08229111345505524
      }
    },
    {
      "id": 42,
      "distance": -0.7074138011114948,
      "value": 0.12466091402152377,
      "layer": 2,
      "weights": {
        "15": 0.1098325577196454,
        "16": 0.03473225192097695,
        "17": -0.48900602494367895,
        "18": -0.4451710557868074,
        "19": -0.029697578901555888,
        "20": -0.049031441620196015,
        "21": -0.3706489859983939,
        "22": 0.272685908624973,
        "23": 0.14244934899594464,
        "24": -0.2369254761968883,
        "25": 0.2777573054878538,
        "26": 0.0784070236807175,
        "27": -0.136791331764629,
        "28": 0.14515969909523263,
        "29": -0.37283033782142616
      }
    },
    {
      "id": 43,
      "distance": -0.901066577416237,
      "value": -0.08303257364344484,
      "layer": 2,
      "weights": {
        "15": 0.18017138999234028,
        "16": 0.011793673513952885,
        "17": -0.1351463303568019,
        "18": -0.06786762532256718,
        "19": 0.14439403658586836,
        "20": -0.3682676618339584,
        "21": 0.14076148408364497,
        "22": -0.355801145099917,
        "23": 0.42808553273594263,
        "24": -0.23077166274968997,
        "25": 0.11527068400582063,
        "26": 0.11780094181889134,
        "27": -0.4133284861238993,
        "28": -0.3591270749415253,
        "29": 0.42755864813343525
      }
    },
    {
      "id": 44,
      "distance": 0.9511107879107141,
      "value": -0.12842665697959227,
      "layer": 2,
      "weights": {
        "15": 0.35151617728558926,
        "16": 0.3631670728645422,
        "17": 0.42333512151048946,
        "18": -0.16869464628475184,
        "19": -0.29838565077643087,
        "20": -0.3238297039961462,
        "21": -0.15717248687382346,
        "22": -0.3611036330829518,
        "23": -0.11131666245766958,
        "24": 0.227608028815817,
        "25": 0.010299715149903244,
        "26": -0.43182190740907467,
        "27": 0.3447795465522051,
        "28": -0.22539803007421444,
        "29": 0.39112683968497397
      }
    },
    {
      "id": 45,
      "distance": -0.8477649083697607,
      "value": 0.04333326523468599,
      "layer": 3,
      "weights": {
        "30": -0.4873513923494931,
        "31": -0.21609202398003902,
        "32": 0.14070212752607358,
        "33": 0.42812136703878556,
        "34": 0.0418823941836578,
        "35": 0.2881501877242999,
        "36": -0.45600492798978554,
        "37": -0.18293427602076306,
        "38": -0.05422452624257856,
        "39": -0.2765235876961156,
        "40": -0.449500674086449,
        "41": -0.4552114114825109,
        "42": -0.3161369242776989,
        "43": -0.30739020191534006,
        "44": -0.15508721046758744
      }
    },
    {
      "id": 46,
      "distance": -0.9592451906747135,
      "value": 0.1499361283448285,
      "layer": 3,
      "weights": {
        "30": 0.0906607012627123,
        "31": 0.3335000419810765,
        "32": 0.17617047112583717,
        "33": -0.22205680075639134,
        "34": -0.008936799235649162,
        "35": 0.3360267388906142,
        "36": -0.1953294536471345,
        "37": 0.08086355603151318,
        "38": -0.1145389808652123,
        "39": -0.19480353338175693,
        "40": -0.09247801643425135,
        "41": 0.33249715138704894,
        "42": 0.2906855492764362,
        "43": -0.40733074009874115,
        "44": 0.18962930891252427
      }
    },
    {
      "id": 47,
      "distance": 0.5895491042996155,
      "value": 0.1935140917379988,
      "layer": 3,
      "weights": {
        "30": 0.11510377873816757,
        "31": -0.36912522103781664,
        "32": 0.3986633993461842,
        "33": -0.12987309206300512,
        "34": -0.022434632716087366,
        "35": 0.1356158980124419,
        "36": -0.26030178158510875,
        "37": -0.43597543041528086,
        "38": 0.4579503512714028,
        "39": 0.12983143943559416,
        "40": -0.39565282163760984,
        "41": -0.47435440709530696,
        "42": 0.23829588231202115,
        "43": -0.45024949053511254,
        "44": 0.4770871503345475
      }
    },
    {
      "id": 48,
      "distance": -0.10576201142770603,
      "value": 0.10754505152833341,
      "layer": 3,
      "weights": {
        "30": 0.22544046908559867,
        "31": 0.14713046442439226,
        "32": 0.4427606840315249,
        "33": -0.08352879074749464,
        "34": 0.38886902202599505,
        "35": -0.023397777000068842,
        "36": -0.15705750317733225,
        "37": -0.02051409918395597,
        "38": -0.23501830575450988,
        "39": -0.2152442675720394,
        "40": 0.1982852677976198,
        "41": 0.3623872473183585,
        "42": -0.3661640923096965,
        "43": 0.037545614915948766,
        "44": 0.180592089521442
      }
    },
    {
      "id": 49,
      "distance": 0.1608167535692675,
      "value": 0.19079206534702284,
      "layer": 3,
      "weights": {
        "30": 0.2359782731387814,
        "31": 0.2229539318636884,
        "32": -0.018803756433158347,
        "33": -0.44003667535663427,
        "34": 0.28501114962099183,
        "35": -0.27039083019834564,
        "36": -0.38044076316691444,
        "37": 0.38519523465536243,
        "38": 0.382046926682056,
        "39": -0.08939272508702811,
        "40": -0.013872720557150386,
        "41": -0.1511343359733417,
        "42": 0.2798154866554041,
        "43": 0.006371914181279803,
        "44": 0.4264014054931744
      }
    },
    {
      "id": 50,
      "distance": 0.7615877306085275,
      "value": -0.0759792228092693,
      "layer": 3,
      "weights": {
        "30": -0.26268726668954157,
        "31": 0.20652310415271202,
        "32": 0.04433604250940182,
        "33": 0.028244963752080854,
        "34": -0.3579108836495746,
        "35": -0.4494933697852751,
        "36": -0.3302939419143206,
        "37": -0.03619474127477229,
        "38": 0.03249876711362465,
        "39": 0.3891065685533086,
        "40": 0.18793381345525406,
        "41": -0.3189355375264299,
        "42": -0.10332078178493698,
        "43": 0.468530415664443,
        "44": -0.36173021514619197
      }
    },
    {
      "id": 51,
      "distance": -0.5799783815840867,
      "value": -0.009276435448542454,
      "layer": 3,
      "weights": {
        "30": -0.10074257607526182,
        "31": 0.3990445136001256,
        "32": -0.20608482044685672,
        "33": 0.334095021792418,
        "34": 0.16562112623836367,
        "35": -0.4618435032624495,
        "36": -0.3862840578341553,
        "37": 0.23628358360847024,
        "38": 0.056310560302764046,
        "39": -0.27148482062823454,
        "40": -0.050224572074953455,
        "41": 0.12312664416298424,
        "42": -0.29420583701068603,
        "43": 0.42483131702990906,
        "44": 0.0029153474266550017
      }
    },
    {
      "id": 52,
      "distance": -0.7242848487740452,
      "value": 0.015577291305390477,
      "layer": 3,
      "weights": {
        "30": -0.26151283096338884,
        "31": -0.4295512757321531,
        "32": -0.11941003948471052,
        "33": -0.04854480303253683,
        "34": -0.021063317337439935,
        "35": 0.2602882891166002,
        "36": -0.15278531888358293,
        "37": -0.4020044872001963,
        "38": 0.018348882944320133,
        "39": 0.4976619825337847,
        "40": -0.35480098936347726,
        "41": 0.07282384494096605,
        "42": -0.01028266844728254,
        "43": 0.4685812695649536,
        "44": -0.3392951764429779
      }
    },
    {
      "id": 53,
      "distance": 0.9727044574172532,
      "value": -0.027527926660349242,
      "layer": 3,
      "weights": {
        "30": -0.15557431988078874,
        "31": -0.4883691385985621,
        "32": 0.1434981231979524,
        "33": -0.10930630244540807,
        "34": 0.3864256237271465,
        "35": 0.4195089734424594,
        "36": 0.2955952870538523,
        "37": 0.39168049581360564,
        "38": -0.05392366835190365,
        "39": -0.17128210174074787,
        "40": -0.1022736283800334,
        "41": 0.3462376841955217,
        "42": -0.4073795466615868,
        "43": -0.06309504402620159,
        "44": -0.1155327220148642
      }
    },
    {
      "id": 54,
      "distance": 0.3462980080529765,
      "value": 0.159448843786501,
      "layer": 3,
      "weights": {
        "30": 0.4637779814265378,
        "31": -0.15102413142743476,
        "32": 0.09940155194426903,
        "33": -0.1970541070575046,
        "34": 0.24636302573433255,
        "35": -0.18584358495831754,
        "36": -0.014477247847712982,
        "37": 0.26697940703964107,
        "38": -0.3015428676882752,
        "39": -0.14274113745524875,
        "40": 0.31763452240427215,
        "41": 0.22648051023945182,
        "42": 0.45368601859616164,
        "43": 0.33645994283921477,
        "44": -0.0394133634667605
      }
    },
    {
      "id": 55,
      "distance": 0.2384661734882887,
      "value": 0.016110684137852604,
      "layer": 3,
      "weights": {
        "30": 0.07248039501071579,
        "31": -0.10545728388761988,
        "32": 0.1592907413894159,
        "33": 0.39605833331610807,
        "34": -0.062245440908928695,
        "35": 0.1332759766230619,
        "36": -0.2099088069058257,
        "37": -0.13792313384847832,
        "38": -0.46800340425833364,
        "39": -0.3243130788165227,
        "40": 0.3318893647448554,
        "41": 0.11657740007090933,
        "42": 0.4092479141511147,
        "43": -0.2923790200832802,
        "44": 0.35047881491760713
      }
    },
    {
      "id": 56,
      "distance": 0.2792488473775536,
      "value": 0.14942664609589665,
      "layer": 3,
      "weights": {
        "30": 0.20540503128709908,
        "31": -0.27767897840310607,
        "32": 0.35923974993556196,
        "33": -0.1437676701911379,
        "34": 0.44510313583031713,
        "35": -0.3146095261571422,
        "36": 0.36497653948849373,
        "37": -0.21624392686645355,
        "38": -0.07420231693888724,
        "39": -0.47128412534244035,
        "40": 0.40642143240198403,
        "41": -0.1761092617677994,
        "42": 0.40629961722174346,
        "43": -0.03860292884938887,
        "44": 0.1236586559547127
      }
    },
    {
      "id": 57,
      "distance": -0.6894616926728714,
      "value": -0.12663176299392054,
      "layer": 3,
      "weights": {
        "30": -0.4924322992783824,
        "31": 0.026762667209937918,
        "32": 0.06657030477178116,
        "33": -0.04240668200201647,
        "34": -0.41268972671700876,
        "35": 0.3381677174381963,
        "36": -0.3797834160846246,
        "37": 0.40502691003355407,
        "38": -0.055546114327929,
        "39": -0.3061291288402923,
        "40": 0.47324482663995315,
        "41": 0.2048745460195659,
        "42": 0.22210597103762963,
        "43": 0.2518151489146576,
        "44": -0.05295624030723611
      }
    },
    {
      "id": 58,
      "distance": 0.3193725282629787,
      "value": -0.18804688233619704,
      "layer": 3,
      "weights": {
        "30": -0.14030389787059006,
        "31": -0.1214780743954833,
        "32": -0.3065806497244552,
        "33": 0.20143414566135165,
        "34": -0.4310022540399612,
        "35": -0.3770411206952441,
        "36": 0.4962334686193898,
        "37": 0.36183602029089323,
        "38": 0.2345232059687452,
        "39": -0.2484170194203058,
        "40": 0.46413648578772093,
        "41": -0.0329966775814744,
        "42": 0.2917866308425119,
        "43": -0.10433079533671208,
        "44": 0.4933824358052683
      }
    },
    {
      "id": 59,
      "distance": -0.6907873651058418,
      "value": -0.03964247266569626,
      "layer": 3,
      "weights": {
        "30": 0.2520552561904522,
        "31": -0.46706174458468785,
        "32": 0.3356475153391153,
        "33": 0.15472408793844583,
        "34": 0.2677150579124209,
        "35": -0.3725643562044476,
        "36": 0.4343250711606773,
        "37": -0.17633996306966415,
        "38": -0.4283110855387263,
        "39": -0.14996896048186292,
        "40": 0.10480096676809258,
        "41": 0.15100358379636536,
        "42": -0.4667373030418087,
        "43": 0.24290447512677682,
        "44": 0.3701383602775066
      }
    },
    {
      "id": 60,
      "distance": 0.09530079505841837,
      "value": -0.06728774534275136,
      "layer": 4,
      "weights": {
        "45": -0.48049613061529317,
        "46": 0.12706242606643547,
        "47": 0.042501908506261454,
        "48": -0.09419698126286258,
        "49": 0.3390124709065462,
        "50": 0.4234089070720374,
        "51": -0.29107892454087025,
        "52": -0.2941838934236062,
        "53": -0.026909621416842056,
        "54": 0.2748512255392085,
        "55": 0.00951495528152524,
        "56": -0.4838497840289282,
        "57": 0.2369950318328079,
        "58": 0.4681854650662345,
        "59": 0.4009480108508786
      }
    },
    {
      "id": 61,
      "distance": 0.7824280140414523,
      "value": -0.06435572053855182,
      "layer": 4,
      "weights": {
        "45": -0.4742882315749246,
        "46": -0.25666775445803824,
        "47": -0.22271032692376258,
        "48": 0.24397891493296753,
        "49": -0.3712042288476519,
        "50": -0.13009916499945662,
        "51": -0.29767497623361117,
        "52": -0.3393948277726232,
        "53": 0.3511174273506704,
        "54": 0.38289039203567476,
        "55": -0.33871812666521217,
        "56": -0.36427774353567755,
        "57": -0.19959463287616497,
        "58": 0.05914950098302296,
        "59": -0.126098865645211
      }
    },
    {
      "id": 62,
      "distance": 0.08131042036525082,
      "value": -0.05152723185301322,
      "layer": 4,
      "weights": {
        "45": 0.4667014973585373,
        "46": -0.20298643937794403,
        "47": 0.1925106352188266,
        "48": 0.43603694468019294,
        "49": -0.3676986682452571,
        "50": -0.19128740602517913,
        "51": 0.25649015890731475,
        "52": -0.026079655825469672,
        "53": -0.2720600687542579,
        "54": -0.37745802654032823,
        "55": 0.28297431312246046,
        "56": -0.23922997889369502,
        "57": 0.14695603747472508,
        "58": 0.021718632015907735,
        "59": 0.30287644802098357
      }
    },
    {
      "id": 63,
      "distance": -0.748993986990758,
      "value": 0.12661725522070358,
      "layer": 4,
      "weights": {
        "45": 0.2256757279458843,
        "46": -0.27182763701995594,
        "47": 0.36634472379160266,
        "48": -0.2525692968861557,
        "49": 0.09994097080870112,
        "50": 0.038319628159067864,
        "51": -0.3673880323120199,
        "52": 0.03844713700806146,
        "53": 0.061754169608329024,
        "54": 0.4590629157440036,
        "55": 0.07459826716273965,
        "56": -0.3385786199996742,
        "57": 0.019450077225629747,
        "58": -0.44131260695786356,
        "59": 0.22525408471874708
      }
    },
    {
      "id": 64,
      "distance": 0.3911477651214412,
      "value": 0.06314608116985787,
      "layer": 4,
      "weights": {
        "45": 0.235545773636602,
        "46": -0.47915419338240184,
        "47": -0.2879966813695881,
        "48": -0.10893219443610913,
        "49": 0.4217481013914388,
        "50": -0.4804271755368378,
        "51": 0.1257946874443312,
        "52": -0.1243537993272148,
        "53": 0.27194907244000976,
        "54": -0.053504110891488654,
        "55": 0.47377483824977096,
        "56": 0.06718197677738968,
        "57": -0.42917323697691534,
        "58": -0.11885568478581832,
        "59": -0.00029927059361567476
      }
    },
    {
      "id": 65,
      "distance": -0.04693627175066428,
      "value": 0.020507716826259882,
      "layer": 4,
      "weights": {
        "45": -0.03336678937658011,
        "46": -0.3347857525200705,
        "47": 0.0981925298871259,
        "48": -0.3239453157377029,
        "49": -0.03080719777059382,
        "50": -0.38755853347174984,
        "51": -0.066079077064639,
        "52": -0.3686499111924675,
        "53": -0.31092429208058925,
        "54": 0.42306903349445224,
        "55": 0.011684533894581683,
        "56": 0.20281935388683037,
        "57": 0.3953238571196541,
        "58": -0.1004952508357968,
        "59": 0.1463320773796276
      }
    },
    {
      "id": 66,
      "distance": 0.8919038694376473,
      "value": 0.016722033814340502,
      "layer": 4,
      "weights": {
        "45": -0.13285962853445532,
        "46": 0.4703050312793763,
        "47": 0.0007496433892572041,
        "48": 0.43227018922776295,
        "49": -0.2752116722114214,
        "50": 0.3229840540531589,
        "51": -0.06028037040715872,
        "52": -0.026133629122477187,
        "53": 0.03913201941191291,
        "54": 0.06834134985927942,
        "55": 0.46377064852731886,
        "56": 0.018298519757809273,
        "57": -0.2567140272235896,
        "58": 0.2983115474973921,
        "59": 0.358481919360775
      }
    },
    {
      "id": 67,
      "distance": 0.24520696402683262,
      "value": 0.25097157107999246,
      "layer": 4,
      "weights": {
        "45": -0.23697114672227948,
        "46": 0.3525193379842616,
        "47": 0.07197762150208376,
        "48": -0.25785352643843595,
        "49": 0.46004018559011806,
        "50": 0.07755654238912213,
        "51": -0.49262984430901813,
        "52": -0.35697261354258947,
        "53": -0.2234014003988115,
        "54": 0.27845933504177767,
        "55": -0.04747551942978179,
        "56": 0.2897170525057654,
        "57": -0.04338458656493227,
        "58": -0.3272329422481668,
        "59": 0.47441009585522353
      }
    },
    {
      "id": 68,
      "distance": 0.315396778228034,
      "value": -0.015057422238645295,
      "layer": 4,
      "weights": {
        "45": 0.33604782033884184,
        "46": -0.05895306844338044,
        "47": -0.3272809819990993,
        "48": -0.18746951158831815,
        "49": -0.339246858639508,
        "50": 0.06455886422385604,
        "51": -0.3742379741248253,
        "52": -0.17680631308118222,
        "53": 0.427287815360765,
        "54": -0.22900789689508794,
        "55": -0.3854192526693867,
        "56": 0.35281190093694403,
        "57": -0.4231657191144683,
        "58": -0.3583521933758319,
        "59": 0.06648075510599138
      }
    },
    {
      "id": 69,
      "distance": 0.4225477549649417,
      "value": 0.1758647696761331,
      "layer": 4,
      "weights": {
        "45": 0.26234128637254583,
        "46": 0.0600491901115493,
        "47": 0.19272812271144202,
        "48": -0.342918119372849,
        "49": 0.43310045869920444,
        "50": -0.3713782315114157,
        "51": -0.2111015953359986,
        "52": -0.10336479698052126,
        "53": 0.03148679790924214,
        "54": 0.43370171197548424,
        "55": -0.141310550743177,
        "56": 0.27438789072047975,
        "57": 0.2799730272541243,
        "58": 0.14685149644863893,
        "59": 0.001586799986119658
      }
    },
    {
      "id": 70,
      "distance": 0.7963732423169358,
      "value": -0.09498364325037453,
      "layer": 4,
      "weights": {
        "45": -0.29200320488021314,
        "46": 0.012367585938594217,
        "47": 0.3279553506608037,
        "48": 0.048006726845165826,
        "49": -0.332079117147539,
        "50": -0.30014620931848246,
        "51": 0.06350838150884319,
        "52": 0.24862733166578188,
        "53": -0.461955833607407,
        "54": -0.3184254130101276,
        "55": -0.4151825428816722,
        "56": -0.17594516230709434,
        "57": 0.2761330879943942,
        "58": 0.46676750003385026,
        "59": 0.4224921389349915
      }
    },
    {
      "id": 71,
      "distance": -0.3498832614204168,
      "value": -0.10072297630585196,
      "layer": 4,
      "weights": {
        "45": 0.030244431320746723,
        "46": -0.4586807951259053,
        "47": 0.2900316958594136,
        "48": -0.15518983663349428,
        "49": 0.19154174792909795,
        "50": 0.49147547378943535,
        "51": 0.3450280697485134,
        "52": 0.4662600691746255,
        "53": 0.14605055352645258,
        "54": -0.2762604059733017,
        "55": -0.26627003009066175,
        "56": -0.3495810658635503,
        "57": -0.1400676791026617,
        "58": 0.45069724029580693,
        "59": 0.12795915033043215
      }
    },
    {
      "id": 72,
      "distance": 0.8313878705303062,
      "value": -0.021951894029695267,
      "layer": 4,
      "weights": {
        "45": -0.009332849499881779,
        "46": -0.288522379646716,
        "47": -0.23859484930715402,
        "48": -0.42287388108932045,
        "49": -0.19316752034666063,
        "50": -0.03260500582048054,
        "51": -0.3836449105084081,
        "52": 0.33572548864372653,
        "53": -0.4789101054491647,
        "54": -0.0038747620595258603,
        "55": -0.3576774509243309,
        "56": 0.18475128641950134,
        "57": -0.41481956494166605,
        "58": -0.24556578247093952,
        "59": 0.40658732262673325
      }
    },
    {
      "id": 73,
      "distance": -0.46385358750333383,
      "value": -0.06954038665022184,
      "layer": 4,
      "weights": {
        "45": 0.2983040415372561,
        "46": -0.10451425288064164,
        "47": -0.1313690314742103,
        "48": -0.268163100026516,
        "49": -0.13542767739903805,
        "50": 0.3109690827158935,
        "51": -0.2810899252794865,
        "52": -0.14532155670901636,
        "53": -0.3867006257462573,
        "54": 0.4955794205219687,
        "55": -0.44659694925978577,
        "56": -0.16713032018658602,
        "57": 0.11442349855413692,
        "58": 0.32178138929103206,
        "59": 0.38972838138925925
      }
    },
    {
      "id": 74,
      "distance": 0.17195303723713806,
      "value": -0.10399243490018886,
      "layer": 4,
      "weights": {
        "45": -0.05582948922663089,
        "46": 0.1359086260214426,
        "47": -0.41107929175835056,
        "48": -0.2048161877577077,
        "49": 0.043984817496322104,
        "50": 0.4891163658534855,
        "51": 0.34139573914266863,
        "52": -0.23810098718953943,
        "53": 0.033525412094418394,
        "54": 0.1520566975949379,
        "55": 0.2046559436703691,
        "56": -0.38269425109036004,
        "57": 0.38767736166307387,
        "58": 0.06912226303701452,
        "59": -0.09928015718391725
      }
    },
    {
      "id": 75,
      "distance": -0.3123085927571101,
      "value": 0.5124829479167947,
      "layer": 5,
      "weights": {
        "60": 0.11689720824779948,
        "61": -0.07637810884186347,
        "62": -0.4403658021964064,
        "63": -0.06612065209659612,
        "64": -0.080923105352113,
        "65": 0.2002219091077131,
        "66": -0.09278875264343622,
        "67": -0.22893907759795107,
        "68": 0.11851973198310739,
        "69": 0.4919613065149089,
        "70": 0.03537090588687275,
        "71": 0.43511499876177095,
        "72": -0.2822537400280094,
        "73": -0.4135047659038301,
        "74": -0.2508530994039234
      }
    }
  ]
}